14310 25
<punct> -0.175932 -0.639121 0.392998 0.472963 -0.307015 0.031827 -0.024479 -0.504076 1.019895 0.687147 0.642269 -0.729608 0.692082 0.074465 -1.062900 0.142833 -0.471652 0.481573 0.732483 0.315846 0.600535 0.277607 0.354113 0.562725 -0.121592
<number> 0.436821 -0.702858 -0.624425 -0.208933 -0.820019 -0.056480 -1.041755 -0.266229 2.712778 1.836625 1.741582 -0.242074 -0.747217 -0.556978 -1.609361 0.331911 -0.468718 0.413280 1.262954 -2.001009 0.499642 0.952729 0.971575 0.432158 -0.517465
của -0.873335 0.456420 -0.173424 0.609548 0.001754 0.187085 -0.318060 -0.737497 0.969876 0.181110 0.856310 -1.660391 0.355258 0.032920 -0.493600 -0.085517 0.641195 -0.448637 0.447712 0.474798 -0.048099 0.726853 -0.202088 0.044685 -0.078497
và -0.132258 -0.256783 0.520949 0.161194 -0.518901 -0.094602 -0.101168 -0.652535 0.836665 0.234511 0.753209 -0.558132 0.791871 -0.274349 -0.410233 0.025686 -0.106972 -0.240818 0.705334 0.261069 0.412116 -0.226779 -0.020054 0.176362 0.403301
là 0.028423 -0.385818 0.319795 0.673076 -0.531531 -0.363070 -0.727660 0.108333 1.358332 0.153627 0.906918 -1.615982 0.956371 0.580276 -0.988555 0.448347 0.070250 -0.046606 -0.001168 0.363266 0.234098 0.455103 0.496781 1.404889 0.005866
các 0.024395 0.564306 -0.085268 1.108493 -0.556705 0.515968 -0.243810 0.882958 1.140829 -0.106622 1.639809 -2.223371 1.208565 -1.015308 -0.506977 -0.905710 0.131120 -0.648896 0.773981 -0.090452 0.967179 0.235343 -0.001231 0.352270 -0.549861
trong -0.677195 -0.183116 -0.981407 1.542222 -0.558865 -0.022277 -0.261304 -0.236007 0.974681 0.530416 1.140830 -1.388702 1.123592 -0.124986 -0.257500 0.278382 -0.020615 -0.312017 0.234768 -0.544404 0.985080 0.161241 0.374802 -0.332306 0.310273
có 0.280788 0.289808 0.753986 0.590423 -0.991453 -0.431012 -0.388442 0.461602 1.582000 -0.088581 0.628716 -1.351607 0.875758 0.234703 -1.304785 0.313626 -0.792549 -0.171636 0.205770 0.106896 0.713929 -0.330981 0.563885 0.441365 0.035570
được 0.858348 0.360844 0.923841 0.533725 -1.653665 0.082000 -0.679908 0.376121 1.490148 -0.122975 0.846058 -0.666096 0.869660 -0.487406 0.533755 -0.423574 0.129200 -0.063326 0.505918 0.361063 0.045295 -0.534070 0.726380 0.941795 0.297668
đã 0.208388 0.119599 0.682061 0.618440 -0.592265 -0.102049 -0.581811 -0.455821 1.829775 0.034507 0.297247 0.164663 0.611513 -0.796104 -0.132379 -0.825622 -0.552908 1.240357 0.298068 0.629687 -0.347907 -0.712176 -0.085617 1.556601 0.829176
cho 0.864918 -0.351428 0.723005 0.103654 -1.124731 0.284155 -0.078756 -0.592479 0.894124 -0.306481 1.258816 -1.183937 0.472134 -0.436957 -0.198240 -0.466868 0.428385 -0.233573 0.677850 0.482253 -0.238367 0.211062 0.622591 0.579602 0.121292
với -0.641186 0.872061 -0.275047 0.595379 -0.768673 -0.482273 0.130411 -0.350091 1.446784 0.394530 0.209165 -1.255590 0.104354 0.738061 -0.521732 -0.392035 -0.320206 -0.582069 0.783514 -0.417612 0.739000 0.110444 0.234319 -0.394424 0.465883
không 0.739192 -0.082756 1.403352 0.794675 -1.293447 -0.721290 0.146532 -0.073756 1.640358 -1.011613 0.306266 -0.446194 1.071978 0.548017 -0.447264 0.327314 -1.320684 0.240369 -0.179490 0.904056 0.305565 -0.697005 0.284085 1.484922 0.691159
một 0.162196 0.261203 -0.950737 1.757584 -0.750872 -0.118721 -0.591346 0.573981 1.514434 0.433349 0.955346 -1.998049 0.640710 -0.209797 -0.235563 -0.205983 0.578721 -0.490414 0.690303 0.015367 1.044757 0.757295 1.021228 0.121125 0.136946
những 0.203370 0.361712 -0.481207 1.600381 -0.956987 -0.012310 -0.963486 0.341705 1.226944 0.197250 0.409054 -2.526278 1.297083 -0.049991 -0.019272 -0.250862 -0.206006 -1.417600 -0.191749 0.069690 1.731822 0.338607 1.119031 -0.017227 -0.186197
người 0.925004 1.028008 0.222183 1.238743 -0.591949 -0.115750 -0.194263 -1.397928 2.289329 -1.018557 0.955669 -1.413305 -0.734869 -0.953222 -0.902227 -0.266763 -0.175810 -0.094136 -0.301226 1.546092 0.829368 1.640500 -0.608797 0.644071 1.203096
khi 0.124996 0.140743 0.078786 1.698695 -0.851951 -0.075685 -0.127094 -0.707819 1.703408 -0.174772 0.165135 -0.567851 0.754839 -0.152240 0.305358 -0.281198 -0.631266 0.530179 -0.030376 -0.011316 0.565621 0.113173 0.715457 1.017941 0.105639
để 1.082492 -0.737479 0.536708 0.435564 -1.517392 -0.055180 -0.106467 -0.081117 1.059092 -0.137437 0.931062 -0.270946 1.357960 -0.607862 0.680263 -0.411083 -0.180318 -0.348957 0.665421 0.260986 0.581207 -0.379067 0.469140 0.603426 0.456686
này -0.251033 -0.017923 -0.085740 1.260603 -0.450875 0.112948 -0.792726 0.137437 1.838579 0.073755 0.779449 -1.460893 0.882477 0.171073 -0.628645 0.789042 0.101351 0.352503 -0.286600 0.141513 0.734966 -0.216177 0.060501 0.855611 0.046038
ở 0.449208 -0.610527 -0.546961 1.374973 -0.669729 -0.625949 0.573839 0.330534 1.320578 1.015285 1.067157 -0.768190 1.062498 -0.319190 -0.679764 0.383842 -0.285061 0.811823 -0.230998 -0.572201 0.029921 0.809352 -1.309458 -0.068149 0.364860
về 0.083503 -0.297248 -0.151544 0.391508 -1.297271 0.156416 -0.157995 0.013763 1.109240 0.708030 0.016824 -1.655982 1.069526 -0.447612 -0.096434 -0.268515 -0.671231 -0.562300 0.303348 0.819369 0.245167 -0.574624 0.072336 -0.930968 -0.715289
đến 1.059651 -0.776108 -0.294098 1.074460 -1.364387 0.149833 0.276413 -0.760044 1.858562 0.659722 0.174802 -0.997735 0.733350 -0.887708 -0.477306 -0.346212 -1.183011 0.443080 0.006640 0.167205 0.808264 -0.061854 0.094682 -0.510676 -0.147525
cũng 0.172359 0.057680 1.465715 0.545564 -0.684366 -0.164990 -0.315018 -0.579308 1.577242 -0.018591 0.325329 -0.669980 1.046662 0.145240 -1.060522 -0.160116 -0.721558 1.090600 0.192651 0.889305 -0.094921 -0.537267 0.107684 1.429492 0.692000
: -0.026663 -0.159384 0.705678 -0.390146 -0.247793 0.561334 -0.851034 0.054412 1.458721 1.123278 -0.171604 -0.813138 0.942118 0.454948 -1.354824 -0.506954 -0.100483 0.637025 0.383286 0.010006 -0.007130 0.678730 1.205939 0.591150 -0.999954
năm -0.570721 -1.358497 -1.679389 1.194784 -1.277669 0.475502 0.352934 -1.539669 2.079496 0.705084 1.770548 -1.010131 0.396993 0.212516 -1.110729 0.069826 -0.166621 1.269857 0.314581 -1.443896 0.169164 0.015847 1.369711 -0.673450 0.209793
sẽ 0.240650 0.022049 1.128652 0.714436 -0.937088 -0.071744 -0.640125 -0.720809 1.903074 -0.211216 0.743843 0.160218 1.149402 -0.479940 0.080885 -0.306966 -0.336127 1.052247 0.220059 0.079066 -0.277060 -0.972541 0.168910 1.692407 1.019820
vào 0.667435 -0.377228 -0.932392 1.755202 -0.650836 0.123296 0.064669 0.436587 1.741377 0.087805 0.920202 0.079773 0.943846 -0.787809 0.506120 -0.498987 0.126536 0.391916 0.651587 -1.000743 0.381342 -0.038289 0.781151 -0.595118 0.643267
” 0.188632 -1.066423 -0.255691 1.019714 -0.013979 -0.138646 -0.659987 -0.472562 0.968601 -0.137156 0.326557 -0.733250 0.253509 0.224850 -0.218307 0.860293 0.160349 0.070124 -0.307924 1.001897 0.176029 0.160739 0.762418 -0.100990 0.386361
từ 0.297391 0.290623 -0.542397 1.016619 -0.779864 0.541697 0.054701 0.050441 1.993400 0.329961 0.659232 -0.282979 1.201364 -0.048871 -0.819215 0.144137 -0.680065 0.306453 0.117974 -0.559472 0.527595 0.066769 0.454812 -0.984514 -0.315865
“ 0.229977 -0.903240 -0.356505 1.140032 -0.189230 0.031340 -0.992497 -0.206427 1.103437 -0.393073 0.180252 -0.981943 0.384460 0.154434 0.146598 0.400776 0.368149 0.093847 -0.233075 1.223368 0.307088 0.075203 1.404607 0.347102 0.172069
nhiều 0.351756 0.456866 -0.000595 1.350291 -1.162110 -0.028294 -0.655780 0.067674 1.253353 -0.171186 1.120871 -1.881823 0.843940 -0.369742 -0.837100 0.130186 -0.939105 -0.760946 -0.541780 -0.370291 1.674686 -0.134771 0.577034 -0.136585 0.430493
đó 0.018032 -0.262747 -0.002304 1.577745 -0.754425 -0.251197 -0.443282 -0.070587 1.969830 0.180148 0.444656 -1.208649 1.633954 0.760241 -0.697521 0.063828 -0.865589 0.105851 0.246029 0.148221 0.713378 0.341483 1.205918 0.843866 0.099435
trên -0.117856 1.203522 -0.324014 1.391354 -0.409714 0.098840 -0.323090 0.818637 2.221696 1.382398 0.099955 -0.370754 1.105505 -0.287857 0.101312 0.948452 -0.125675 -0.196321 0.519518 -0.041181 0.792199 0.831867 -0.821189 -1.330512 -0.422064
tại 0.151204 -0.484574 -1.009486 0.613777 -1.096871 0.481964 0.112312 0.457319 1.074477 1.481733 1.083728 -1.080274 0.671354 -0.702599 -0.235817 -0.215815 0.167148 1.466166 -0.161761 -0.370005 0.074479 0.436851 -1.306222 0.106961 -0.312858
ra 1.098146 -0.042199 -0.765677 1.897919 -1.336016 0.099211 -0.816015 1.221774 1.594880 0.694214 -0.093439 -0.419561 1.333021 -0.804070 0.982714 -0.248052 -1.044001 0.696349 -0.573033 0.321049 0.464954 -0.471097 0.491771 0.037651 0.100886
phải 0.765342 0.309962 0.978257 1.366479 -1.320128 -0.473250 0.939369 -0.191580 1.419640 -1.312007 0.365572 0.018603 0.822808 0.014793 0.303442 -0.615383 -1.560344 0.521740 0.483751 0.800318 0.104718 -0.730605 0.089419 1.541262 0.550119
ngày -0.117554 -1.120259 -1.268527 0.637593 -1.146103 1.142541 0.189256 -1.591160 1.677398 1.309057 0.549180 -0.738290 0.260926 0.127706 -1.008555 -0.782975 -0.543660 2.061898 0.327753 -1.150093 1.136941 -0.170369 1.762787 -0.173384 0.180313
theo -0.662715 0.518536 0.378132 -0.258092 -0.565529 0.528254 -0.345320 0.282791 1.905618 0.849107 -0.438258 -1.226075 0.169551 0.208527 -0.890426 -0.153596 -0.688896 -0.109189 2.219402 1.060713 0.731542 -1.377765 0.873848 -0.262099 -1.203450
nhưng 0.008855 -0.587449 0.654847 1.242439 -0.720939 -0.547907 0.152296 -0.834011 1.485671 0.237487 0.275871 -0.967088 0.788616 0.921889 -0.731943 0.581537 -0.939019 0.293727 0.219042 0.294539 0.598263 0.283449 0.453860 1.119487 0.060479
như -0.197109 -0.215057 0.690901 0.785352 -0.048076 -0.098312 -0.453026 -0.131265 1.066044 0.134524 0.345563 -1.011639 1.245484 0.733069 -1.045552 0.829663 -0.101792 0.141613 -0.063032 0.203289 0.729741 0.306458 0.434352 0.428985 0.069769
lại 0.565468 -0.281734 0.648083 1.704317 -1.251864 -0.575664 -0.609667 0.556707 1.266333 0.290090 0.135114 -0.276769 1.092195 -0.117615 0.855446 0.081451 -0.500021 0.330894 0.416557 0.721058 -0.535309 -0.528020 1.036433 0.560341 0.337949
ông 0.144496 -0.695660 0.399606 0.870402 0.094569 -0.747063 -0.529355 0.200145 1.216664 0.180046 -0.128429 -1.708374 -0.811851 -0.028097 -1.802235 -1.204126 -0.741481 1.278148 1.308723 2.021358 -1.489602 -0.271666 1.565811 0.826862 0.282099
sau -0.308365 -0.720930 -1.524391 1.717969 -0.648897 0.115589 0.024644 -0.869294 1.842994 0.787621 0.203497 -0.345300 0.970039 0.498011 -0.288798 0.205003 -0.840288 0.679360 0.139822 -0.746683 0.982412 0.713002 1.279704 0.800316 -0.797320
còn 0.376330 0.080486 1.165705 1.199995 -0.948164 -0.913992 -0.481326 -0.023515 1.431471 0.000974 0.555714 -0.778152 0.472605 0.051370 -0.835712 0.481257 -1.213959 0.451708 -0.108886 0.294978 0.049697 -0.208095 0.350110 0.991463 0.847309
tôi 0.873890 -0.589449 1.382467 2.006961 -0.594060 -0.440456 0.111566 -1.466491 1.752390 -0.413467 -0.514632 -1.444359 0.656272 0.454318 -0.216185 -0.964505 -0.631721 0.635616 0.390573 1.453019 -0.016809 0.358279 1.681983 1.123636 0.791685
bị 0.576294 -0.326589 0.022227 1.791073 0.866654 -0.295847 -0.763332 -0.086247 0.984984 -1.111317 0.530414 0.766189 0.389113 -2.061220 -0.072507 -0.071214 -2.052473 0.175004 -0.182217 1.141230 0.261796 0.153784 0.024457 1.832816 -0.087593
hơn 0.232000 -0.340742 0.680904 0.519055 -1.497420 -1.239221 -0.554829 -1.521563 1.544224 0.556931 0.621591 -0.822788 0.719680 0.769967 -0.672235 1.238117 -1.666145 -1.359755 0.020411 -0.896845 0.750410 -0.360657 0.481639 -0.403723 0.740479
làm 0.187001 -0.527720 -0.200831 1.526034 -0.358194 -0.060016 -0.145703 0.074766 0.752373 -0.798166 0.571056 -0.723532 0.495635 -0.669747 -0.269199 0.523276 -0.417129 0.144986 1.245240 1.566359 1.367823 -1.686880 0.995002 1.307034 0.450507
đang -0.115785 0.173957 1.073082 1.463878 -0.722499 -0.543001 -0.026970 -0.535065 1.599888 -0.089255 0.564978 0.201470 0.775966 -1.132233 0.322465 -0.042908 -0.767303 1.274565 0.147151 0.645797 0.124431 -0.950454 -1.017363 1.281057 1.458308
việc 0.000053 0.053350 0.306582 0.988063 -1.192337 0.373263 0.147860 0.081263 1.133325 -0.778670 1.369654 -0.797400 1.605580 -0.321531 0.460368 -0.921950 -0.684341 -0.181679 0.816975 0.554197 0.324362 -0.747373 0.539520 1.021849 -0.117382
anh 0.604727 -0.873681 0.532741 0.915180 -0.404135 -0.782579 -0.267537 -0.696588 1.838959 0.217405 -0.338377 -1.385416 -0.448396 -0.218697 -1.246167 -1.161374 -0.261415 1.335921 0.672626 1.554601 -0.923346 0.448262 1.092162 0.856082 1.113099
thì 0.512171 -0.628690 0.811593 1.070301 -0.796416 -0.123085 0.157087 -0.317589 1.324351 -0.099868 0.483514 -0.794974 0.689215 0.298616 -0.763030 0.422130 -0.922272 0.606749 0.192853 0.564364 0.513834 -0.015479 0.634786 0.880726 -0.038484
rất 0.406551 -0.166186 1.495673 0.769124 -1.367625 -1.140713 -0.399922 -1.267635 1.194472 -0.038093 -0.388260 -1.105663 1.002831 0.636673 -0.273116 0.985583 -1.177368 -0.623419 -0.819238 0.281980 0.890783 -1.141707 -0.017519 0.368894 1.295912
trước -0.082019 -0.060733 -1.229213 1.347747 -1.183550 0.006241 0.480454 -1.328798 2.007327 0.783386 -0.154051 -0.339026 0.989796 0.699405 0.080209 -0.572077 -1.176561 0.153295 -0.002492 -0.468479 -0.007485 1.426076 0.746285 0.027946 -1.023480
biết 0.830947 -0.224973 1.194586 0.577723 -1.206838 -0.113736 -0.047132 -0.212601 1.636002 -0.151348 0.057019 -1.097811 1.517034 0.372857 -0.784947 -0.690836 -0.747159 0.312225 0.519464 1.409633 0.435598 0.572369 1.227329 1.120406 0.158225
đi 1.745136 -0.492049 0.241706 1.579697 -1.504208 -0.121128 0.655193 -0.309372 1.932137 0.407787 -0.213359 -0.224101 -0.542739 -1.416833 1.048749 -0.104963 -0.886314 0.807060 0.997340 0.955462 1.780464 -0.919007 -0.094404 -0.340492 0.937651
việt_nam -0.605065 0.191794 0.296846 -0.304218 -0.663982 0.839146 0.032711 -1.459635 1.973026 0.317176 1.955436 -0.347764 0.966440 -0.541632 -1.171420 -0.063466 0.899113 1.523801 0.399394 0.738320 -0.111513 0.415005 -1.323299 0.340211 1.232632
chỉ 0.920494 -0.132648 1.514725 0.879462 -1.405192 -0.514466 -0.220606 0.098651 2.205598 0.022351 0.673318 -0.457241 0.966724 0.632596 -0.927036 0.376149 -1.006991 0.866323 0.185056 -0.098680 0.140461 0.093102 0.744749 1.333377 0.429952
sự -1.035283 0.709882 0.710667 1.343200 -0.881487 -1.080588 -0.313986 -1.935806 0.405717 0.103195 0.162457 -1.138768 2.369495 0.317254 0.956359 -1.233035 -0.902846 -1.955300 0.275453 -0.244722 -0.000111 -0.599746 0.018542 0.328024 1.118266
mình 1.119249 -0.805366 0.903622 2.075596 -0.266874 -0.935574 -0.098497 -0.694009 1.425914 -0.459544 0.044299 -1.802343 1.137143 0.081225 -0.053715 -0.409206 0.198109 -0.388253 0.850086 1.553633 0.404406 0.934237 1.214239 0.830856 1.061114
có_thể 0.773653 0.112991 1.784448 0.754012 -0.797161 -0.176622 -0.942707 -0.439311 1.788883 -0.646178 0.478384 0.134813 1.497136 -0.619879 0.122948 -0.121664 -0.618008 0.266337 -0.237990 0.242525 0.382594 -0.388398 0.316864 1.475247 0.843423
mới 0.068178 -0.216569 0.531079 1.156181 -0.832770 0.254498 -0.507898 0.090205 1.883537 0.005110 0.652192 -0.882078 1.165454 0.122479 -0.231694 0.710398 0.851601 0.654468 0.253767 -0.097328 -0.009623 -0.468839 0.672242 0.581948 0.205366
mà 0.140317 -0.384448 0.450242 0.931424 -0.634853 -0.117330 -0.038610 -0.411440 1.266051 -0.347470 0.548663 -1.284771 0.856714 0.772990 -0.676035 0.344940 -0.209146 0.254161 -0.095879 0.698181 0.436896 0.354184 0.373669 0.923962 0.233838
nhất 0.006384 -0.726970 0.337830 0.621706 -1.280864 -1.069248 -0.919525 -1.784106 1.924913 1.191857 0.609412 -1.789408 1.205350 0.731338 -1.076588 1.744314 -0.205276 -0.616410 -1.482853 -0.724391 -0.163050 0.450060 -0.422833 -0.687302 0.671022
đồng 0.835030 -0.840277 -0.469311 0.026578 -1.052596 -0.079179 -0.248759 -0.772247 1.626133 0.611554 3.006192 -0.002667 -1.923707 -0.271780 -1.326214 0.817161 -0.836018 -0.275113 2.288261 0.143336 0.042287 1.597309 1.459487 -1.015719 0.166716
vẫn 0.002038 -0.111549 1.754879 0.988016 -0.866712 -0.773451 -0.173426 -0.761303 1.553776 0.082198 0.537381 0.050531 0.833308 0.006164 -0.236783 0.391212 -0.941739 1.211510 0.065920 1.030919 -0.487305 -0.374665 -0.529810 1.368979 1.226288
bạn 1.083772 0.070509 1.935195 1.534413 0.045585 -0.412076 -0.048671 -1.300637 1.759565 -0.995267 0.141081 -1.319483 0.954518 -0.581343 -0.828895 -1.112288 0.236132 0.112805 0.257385 -0.096647 1.298999 0.537841 0.728780 1.343193 1.622714
nước 0.319570 -0.803989 -0.078534 0.992231 0.207653 -0.038065 -0.948924 0.738022 0.489326 -0.256272 2.486636 0.115198 1.838217 -1.134695 -1.991882 -0.190683 -0.172706 0.512779 0.283937 0.323612 0.066035 0.551404 1.132261 -1.157921 2.384104
% -0.234323 0.460431 -0.038530 0.172381 -1.007775 -0.174897 -0.416952 -0.881435 2.162951 0.810121 2.831960 -0.929613 -0.722594 -0.286506 -1.801223 0.645090 -1.756822 -1.294795 1.672479 -1.304243 -0.092788 0.613525 0.555605 -0.946896 -0.587467
lên 0.537238 0.509877 0.081211 1.605430 -0.367286 -0.310355 -0.750783 -0.008354 2.413023 1.454813 -0.120249 0.816030 0.240029 -1.100949 0.546301 0.477979 -1.197632 0.153069 1.521933 0.452967 -0.386527 -0.239200 0.610247 -1.420044 -0.014280
hai 0.084802 0.368881 -1.021489 1.797597 0.139728 -0.521464 -0.363483 0.290672 2.022346 0.203349 1.210807 -1.578738 0.084468 -0.548096 -1.197542 -0.832573 -0.247224 -0.298691 0.980741 -0.540737 0.751155 1.374449 0.825748 0.024780 0.473132
nhà 1.065717 -0.666249 0.284794 2.426218 -0.926937 -0.222268 1.186042 0.653517 0.652644 0.510636 1.693549 -1.815576 -0.227885 -0.570005 0.279783 0.440622 0.157877 0.778007 1.181451 0.921348 -0.904455 0.944016 -0.327973 -0.460828 -0.336340
tới 0.809394 -0.648995 -0.740940 1.032983 -1.641152 0.011673 -0.143982 -1.066331 2.459307 0.847317 0.411770 -0.726542 0.877385 -0.853917 -0.280530 -0.556947 -1.156877 0.592332 -0.130833 -0.093014 0.151133 0.013886 0.085719 -0.545189 0.209215
nên 0.609473 -0.508124 1.192597 1.334028 -0.855791 -0.263470 0.081507 -0.338626 0.978195 -0.446628 0.524653 -0.805972 0.915009 -0.226044 -0.230386 0.171348 -1.088720 0.082192 0.300712 0.614970 0.537743 -0.656795 0.783231 0.805511 0.486626
cùng -0.101090 0.199263 0.164926 0.895073 -0.402802 -0.548512 0.227117 -0.668515 1.243488 0.921896 -0.013102 -1.500765 -0.367132 -0.449028 -0.455524 -1.176407 0.256565 0.307543 1.373670 -0.677176 1.366074 0.021292 0.413552 -0.114890 1.275643
đây 1.150109 -1.324383 0.615236 0.966729 -0.997879 -0.562044 -0.347688 0.131304 2.195248 1.523604 0.063662 -1.014968 2.770576 0.972453 -1.500676 0.110482 -0.978071 1.166443 -0.415860 -0.043119 0.497064 1.077957 0.343165 1.293902 0.372160
tháng -0.216823 -0.795734 -1.650192 1.354276 -0.951924 0.681655 0.713962 -1.837143 2.652917 -0.125270 1.552549 0.111950 0.142559 0.160996 -1.315621 -0.036243 -0.979766 1.073377 0.452363 -1.601000 0.323100 0.523156 1.801089 -1.188529 -0.231215
con 1.975192 -0.944775 0.872792 1.622469 1.043406 -0.027454 0.055653 0.012916 1.380425 -0.939117 0.134354 -1.019564 -0.221996 -1.492100 -1.600459 -0.310564 0.608201 0.262124 0.733610 1.036510 1.686838 1.298379 1.234293 -0.591583 1.273682
vì 0.243129 -1.044423 0.068152 1.500919 -0.605666 -0.281027 -0.035793 -1.111037 0.742685 -0.450577 0.182722 -0.968923 0.840378 0.174393 -0.038454 0.451066 -1.139169 -0.057671 -0.460121 1.337011 0.600755 0.488887 0.663999 1.110754 -0.322587
; -0.191036 -0.843878 0.189594 -0.794004 -0.640910 0.358488 -0.081815 -0.329429 0.708760 0.711039 1.783741 -0.472452 0.649010 -0.658100 -1.093089 -0.166555 -0.362633 -0.020202 1.471163 -0.289999 0.259893 -0.242403 0.220323 0.339449 -0.489254
cả 0.090711 -0.322245 -0.633821 1.542381 -0.424434 -0.365404 -0.133032 -0.494570 1.326902 0.278098 1.454115 -1.238566 0.783514 -0.188036 -0.998952 -0.006522 -0.381409 -0.467256 0.625042 -0.116151 0.787233 1.569410 0.760393 -0.268704 0.493852
qua 0.490207 0.013258 -0.768164 0.967310 -1.002673 0.531720 0.448385 0.508403 2.243024 0.502899 -0.046674 0.354952 1.908030 -0.261355 0.014862 -0.686255 -0.738564 0.320519 0.369658 -0.692905 1.600738 0.144245 0.424503 -0.934943 0.104022
khác 0.178537 0.396771 0.282752 1.107388 -0.531081 -0.351734 -0.351551 0.530661 1.385106 -0.345481 1.063150 -2.130306 0.932338 0.004650 -1.168423 0.764968 -0.355517 -0.575399 -0.364124 0.316147 1.194834 0.075596 -0.663624 0.334403 0.290139
giá -0.305255 0.531590 1.606096 1.597315 -1.152129 0.872156 -0.102620 0.104328 1.575210 0.376402 1.948527 0.421596 0.647882 1.117201 0.259016 2.665835 -1.413801 0.357511 0.748032 -0.175543 -0.263272 0.462155 0.977418 -0.820764 -1.802850
tăng -0.627600 0.111920 1.153838 0.841165 -0.358291 0.089632 -0.868547 -1.245629 1.876737 0.706023 1.648454 1.292573 0.503009 -0.705877 -0.728090 1.509834 -2.157830 0.189352 1.229078 -0.824984 -0.546900 -1.513327 0.368108 -0.558579 -0.164552
họ 0.502805 -0.086476 1.257250 1.396842 -0.764434 -0.791779 -0.268502 -0.671897 1.769545 -0.440621 0.264190 -0.758111 1.060834 0.328725 -0.279152 -0.707614 -0.667092 0.475339 0.321247 1.045816 -0.267409 0.332769 0.645847 1.778893 1.012603
rằng 0.049815 -0.208087 1.022033 0.360266 -0.868648 0.236794 -1.149756 -0.478209 1.836018 0.305974 0.029662 -1.315540 2.063440 0.507708 -0.525659 -1.174161 -0.291549 -0.036723 0.046409 1.569238 -0.451833 1.355219 1.460414 1.391273 -0.515663
bộ -0.514762 1.117743 -0.965706 -0.632613 -0.345481 1.099732 0.494229 0.133386 1.834667 0.187799 0.654571 -0.515638 -0.020305 0.220115 -0.623768 -0.152654 1.447767 -0.077870 3.663348 1.987290 2.160929 -0.327395 0.766116 0.082707 -0.210658
do -0.709214 -0.208059 -0.100739 0.927641 0.058458 0.114194 -0.233464 -0.175018 0.739849 -0.264122 1.071294 -0.731964 0.658767 -0.356340 -1.100325 0.721478 -1.205583 0.090167 0.318912 0.754359 0.608324 -0.314126 0.086237 0.939941 -0.672597
cô 0.654833 0.211263 1.409804 2.042233 0.656262 -0.751420 -0.681303 -0.836659 1.430084 -0.178702 -0.463832 -1.994034 -0.353097 -0.373599 -0.946328 -1.115013 0.443588 0.740074 0.434304 0.634006 0.195583 0.528915 1.067350 1.469266 1.351151
cao -0.442504 -0.561308 1.235574 0.592414 -0.624768 -1.119664 -0.110646 -1.372821 1.607243 1.195034 0.361547 -0.238690 0.577198 0.053786 -0.131969 2.058167 -1.566801 -1.742987 1.634595 -0.140563 -0.231087 -0.753542 -0.150268 -0.825529 -1.207376
nói 0.600253 -0.252848 0.679583 0.162385 -0.687862 -0.131253 -0.789937 0.054711 1.877003 0.373539 -1.132135 -1.240890 0.788039 0.430387 -1.544212 -0.737412 -0.785874 1.031328 0.049653 1.958646 -0.229873 0.143231 1.162952 0.565753 0.222269
chưa 0.550464 -0.144547 1.609366 0.664854 -1.807648 -0.737791 -0.051631 0.132717 2.065958 -0.392640 0.112185 -0.449157 1.392060 0.464082 -0.403832 0.449372 -1.165888 0.554934 0.090182 0.480024 -0.013145 -1.135701 0.216081 1.520685 0.416825
lần -0.029748 -0.222236 -1.037040 1.143687 -0.959533 0.133338 -0.809001 -1.089853 1.746702 0.548703 0.797066 -1.034567 0.134560 -0.272473 -0.166570 -0.875371 -0.660459 0.416063 -0.461505 -1.585296 0.701079 0.200793 0.929463 0.847565 0.350573
nếu 0.299570 -0.167501 0.993021 1.140982 -0.976212 -0.169208 -0.251203 -0.352006 1.730828 -0.527963 0.557345 -0.760497 1.040364 0.188111 -0.396490 -0.099038 -0.842560 0.121106 0.072330 0.364777 0.310560 0.058331 0.956792 1.555118 -0.171407
thấy 0.975231 -0.136323 1.710218 1.605427 -0.561126 -0.606952 -0.809507 -0.057057 1.271866 -0.073824 -0.272207 -1.197135 1.163486 -0.435048 -0.038587 -0.014413 -0.674551 -0.253727 -0.255889 1.355881 0.348362 0.860219 1.120682 0.626073 0.055292
lớn -0.060554 0.143065 -0.124816 0.757466 -0.844782 -0.063612 -0.997972 -0.304345 1.436044 0.361481 1.188807 -0.926141 0.398076 -0.198182 -0.821832 1.651868 -0.672432 -0.169596 -1.024768 -0.045407 0.618776 -0.763142 -0.452282 -0.905780 0.528124
số 0.924011 1.146913 -0.720429 0.348186 -1.184281 -0.153850 -0.771767 1.250354 2.376234 0.560048 1.352813 -0.958426 -0.760453 -0.426955 -0.711948 0.365208 -0.862079 -0.757023 0.500569 -0.481910 0.135209 0.924797 0.325207 0.039813 -1.137371
triệu 0.697766 -0.525283 -0.836652 -1.004149 -1.154914 0.409969 -1.320183 -0.885515 1.398852 1.040017 3.280571 -0.548232 -2.775502 -0.890572 -1.485571 0.623605 -0.122791 -0.417921 0.139599 -1.165650 0.832153 2.966848 1.478361 -0.308436 0.298919
tiền 2.486204 -0.176929 -0.092885 0.273673 -1.953728 0.257654 -0.409869 0.422335 1.781341 -1.487594 1.708837 -0.211649 -0.936419 0.476014 -0.158233 0.863797 -1.146644 -1.254856 -0.067973 0.446029 -0.705836 0.197612 1.687011 -1.100284 -0.334382
công_ty -0.789298 1.086583 0.424409 0.375178 0.062748 1.368628 -0.280222 0.536648 1.059791 -0.639573 2.602219 -1.361831 -0.084321 -0.600563 -1.702940 0.124107 0.155396 1.112110 1.073552 1.219865 -0.266090 -0.567244 -0.505460 0.578995 -0.438648
gần 0.775826 -0.647007 -1.104846 1.026331 -1.443882 -0.746796 -0.116008 0.084320 2.026596 1.452687 0.825669 -0.590760 0.510527 0.162834 -0.790421 0.580992 -1.563698 0.158737 0.220779 -0.913145 0.621959 0.369692 -0.014192 -0.709765 0.349486
cần 0.705446 -0.112088 1.765784 0.255188 -1.565726 -0.271222 -0.053443 -0.146646 1.106181 -0.595076 0.819901 -0.596085 1.806618 -0.418478 -0.512831 -1.148790 -1.021402 0.080972 0.267240 0.029786 0.444990 -0.894010 0.471325 1.578595 0.767162
hàng 0.644847 0.107312 -1.099043 0.521964 -1.646433 1.210321 -0.425724 -0.099012 1.375000 -0.082973 2.031986 -0.179740 -0.825516 -0.047886 -0.443173 1.319772 -0.973304 0.733956 -0.502311 0.711134 1.690346 0.677003 0.796444 -1.090786 0.164768
đưa 1.016208 0.158194 0.270344 0.720019 -0.800921 0.319767 -0.759779 0.220317 2.328594 0.065616 0.451046 -0.103563 0.496363 -1.179994 0.245837 -0.952131 -0.112663 0.432428 0.732912 1.196899 -0.379832 0.111723 0.367717 0.410779 0.293265
hay 0.294610 -0.029762 0.535972 0.682887 -0.343006 -0.201038 -0.125341 -0.342815 1.142662 -0.155314 -0.030785 -0.497575 0.444423 0.453577 -0.490333 0.544696 -0.262503 0.251740 -0.208508 0.329672 0.926431 0.149028 0.386978 0.598149 0.177743
bằng 1.032479 -0.064056 0.127723 0.281506 -0.833619 0.125618 0.122721 0.876084 1.370246 -0.729942 0.678207 -0.229092 0.555867 0.395822 0.225236 0.388661 0.711268 -1.039272 0.941358 -0.157471 0.822642 0.364026 1.189350 -0.132850 -0.127455
điều 0.061238 -0.570442 0.210882 0.093108 -0.452782 -0.317431 -1.786279 -0.147970 0.858698 0.269844 0.021132 -1.942797 1.545072 0.940828 -0.938539 0.353086 -0.567124 -0.555256 -1.117525 0.656480 1.871986 -0.199936 0.548036 2.545551 0.376720
bên 0.295832 0.827847 -0.437024 2.438098 0.102662 -1.110405 0.952608 0.816543 1.285743 0.265468 -0.102929 -1.050090 0.878587 0.353192 -0.476051 -0.677355 -0.559347 -0.163803 1.287286 0.156808 0.583297 0.939465 -0.279846 -1.176004 0.960770
đầu -0.058036 -0.266831 -1.212300 3.025293 0.098359 0.363763 0.473193 -0.367205 1.944007 -0.118334 0.764163 -0.224702 0.149649 -0.554508 -0.041740 0.156016 -0.185213 0.603906 0.805249 -1.038669 0.079735 0.567297 1.785091 -1.483893 -0.530856
cuộc -1.704814 -1.206455 -3.586423 0.413414 -1.855939 0.186067 0.076578 -0.525701 0.758116 0.712261 -0.310755 -1.324290 1.090516 0.313820 1.980963 -1.513173 0.535142 0.505351 -0.495880 0.624441 1.377785 -0.322373 0.430884 0.892962 0.150060
thị_trường -1.248578 0.644283 0.637462 1.607472 -0.969199 1.088377 -0.058468 -0.723546 1.275202 0.473552 2.158986 -0.314206 1.555103 -0.386707 0.634789 1.253792 0.389845 0.985152 -0.285764 0.009886 -0.902718 -0.036880 -1.484257 -0.564482 -0.275279
mức 0.510113 -0.119296 0.643399 0.939341 -1.607756 -0.939800 -0.279547 -0.062822 2.194347 0.613394 1.305340 -0.289097 0.737472 0.796816 -0.490102 1.675735 -2.478019 -1.128025 0.294292 -1.581768 -2.330080 -0.636374 0.310420 -0.499270 -1.942764
nay -0.251516 -1.049729 0.347142 1.421111 -0.855416 -0.071489 0.395522 -1.156936 2.078908 1.543167 0.566405 -0.764144 1.041696 0.265622 -1.647255 0.106981 -1.028327 2.062755 0.780183 -0.844754 0.489150 -0.321143 0.850145 -0.020221 0.547032
đường 0.778289 -1.159585 -0.904086 0.236115 0.181539 -0.218151 0.388155 1.794195 1.077774 0.945037 -0.041930 0.559596 0.982854 -0.558761 -1.034562 0.564625 -0.246065 0.579944 1.128251 0.467466 2.418941 0.057362 -0.204967 -1.275445 0.802267
thời_gian 0.404948 -0.921279 -0.865330 0.622594 -2.255222 -0.156776 0.272676 -0.700714 1.556039 0.472917 0.841330 -0.313195 1.275911 0.848642 0.130214 -0.085342 -1.233580 0.170151 0.188801 -1.564861 1.333445 -0.930415 1.322886 -0.301983 0.740983
xe 0.805901 0.695934 0.389752 1.246179 0.030199 0.399527 -0.409444 0.154034 2.317431 0.331382 0.707515 0.972254 -1.409744 -1.292792 1.060553 2.171285 0.649680 0.099981 1.451869 0.543574 1.798055 0.935929 -0.509411 0.308817 -0.597475
trận -0.044954 -0.728437 -2.867856 0.871516 -1.159493 -1.616856 -0.378107 1.063616 1.980483 1.684255 -0.787155 -0.827905 -0.708361 0.415318 0.657104 -0.261785 -0.214353 0.199787 -0.219361 -2.112017 -0.083153 0.640376 0.394205 1.613418 -1.230799
đầu_tư 0.029028 1.119628 0.766181 0.024821 -2.015754 0.515479 -0.302783 0.554011 1.122238 -0.156212 2.538880 -1.198417 0.641665 -0.644772 -0.339527 0.280023 -0.379557 -0.200075 1.085513 0.118512 -0.731395 -2.532548 -0.768866 -1.284098 0.543760
thứ -0.050570 -0.054008 -1.534183 1.577265 -0.406308 -0.359180 -0.139056 -0.152523 1.725704 0.145173 1.278448 -1.425381 0.387388 0.826979 -1.178395 -0.289236 -0.119371 0.152789 -0.679883 -2.609485 0.675289 1.326804 1.056218 0.259727 0.381584
giảm -0.337735 -0.063925 1.322290 1.162784 -0.328609 0.100846 -0.645842 -1.263000 1.380723 0.375673 1.718844 1.286612 0.547511 -1.549493 -0.429320 0.801037 -2.717101 -0.010720 0.954995 -1.551391 -0.290994 -1.564517 0.670036 -0.203959 -0.397032
nào 0.461265 0.105389 -0.022588 1.213456 -0.944017 -0.390050 -0.158046 0.365809 1.546780 -0.418687 0.543630 -1.811052 1.053365 0.649017 -0.797432 0.226998 -0.611213 -0.447673 -0.637094 -0.106178 0.909840 0.181751 0.396136 0.656152 0.049020
tổ_chức -0.715171 -0.516992 -0.921921 -0.163324 -1.745869 1.103958 0.277507 -0.410984 0.189532 0.529130 1.795717 -1.425711 0.860757 -0.994655 0.411486 -1.400711 0.703633 1.010174 0.850658 -0.351585 0.515822 -1.452934 -0.145785 1.030063 0.096557
mua 1.338505 1.158913 1.359204 1.217487 -2.124643 0.776855 -0.494253 0.709707 1.564092 -0.359054 1.608069 -0.264381 -0.992136 -0.073374 1.133524 0.236516 -0.367026 0.690786 0.278721 0.086406 0.068109 0.048038 0.839131 -0.133229 0.100850
chiếc 0.905749 0.801995 0.172039 1.040381 0.510773 0.062252 -0.898479 0.997602 1.503449 0.680630 0.597641 0.127260 -1.232168 -0.421649 0.851756 0.904246 1.207950 -0.854571 1.708782 -0.208078 2.252549 2.901678 1.037110 1.051705 -0.614723
đều 0.392470 0.626788 1.302084 1.227278 -0.618309 -0.789333 -0.249599 -0.001174 1.541880 -0.117726 0.650192 -0.724994 0.697676 -0.235259 -0.612529 -0.291912 -1.007865 0.559264 0.107115 -0.001238 0.240994 -0.061356 -0.297871 1.175542 1.044341
tuổi 0.778708 -0.934291 0.708404 0.924855 0.114097 -1.020221 0.664472 -1.886482 2.407570 0.028327 0.002414 -0.521816 -1.328900 -0.794106 -2.092770 0.754165 -0.513655 0.867496 0.065312 -1.736647 0.262306 0.010273 0.091966 -0.243322 0.279724
tuy_nhiên -0.884406 -0.098265 0.484398 0.928312 -0.157473 -0.133698 -0.372596 -0.732722 1.600121 0.780051 0.263303 -1.176121 1.297894 0.792470 -1.141277 0.150301 -1.023132 0.176838 0.662866 0.531121 0.664914 0.763756 0.680755 1.445292 -0.835280
bán 0.989990 0.950974 1.177502 1.293568 -1.805268 1.143133 -0.365952 0.526883 1.487845 0.004909 1.464240 -0.031620 -0.871231 -0.042096 0.822377 0.978981 -0.715654 1.214194 0.115069 0.038495 0.260021 -0.166777 0.800423 -0.347773 -0.504769
khiến -0.289091 0.211688 0.513181 1.551768 0.333252 -0.392528 -0.555026 -0.861640 1.188473 0.118161 0.622849 -0.730814 0.926080 -0.106060 -0.752930 0.373484 -0.876775 -0.153177 -0.111228 0.557903 0.677073 0.878630 0.004873 1.109013 0.332828
cách 1.588311 -0.887394 0.145007 0.446503 -1.120913 -0.770719 0.485149 1.171236 1.266794 0.382123 0.010995 -0.980582 2.234442 0.438333 -0.197022 -0.526195 -0.409469 -0.708466 0.855443 0.523585 1.132382 -0.041965 0.071094 0.506406 0.465074
khoảng 1.219016 -0.537135 -0.042258 -0.242140 -1.977020 -0.629364 -0.423644 -0.109622 1.992163 1.470570 1.499920 0.366222 0.365081 0.237027 -1.036143 0.962960 -1.863287 -0.110814 0.309199 -1.401411 0.601982 0.319274 0.459223 -0.805430 0.530432
thực_hiện -0.856358 0.245180 -0.638520 -0.205995 -1.713339 0.337549 -0.384915 0.418078 1.499307 -0.459518 1.178118 -0.652649 1.469099 -0.176934 0.397182 -0.965686 -0.285420 -0.370737 1.069938 -0.410822 0.723530 -2.188609 0.488381 1.384395 -0.097332
tỷ 1.027950 -1.098721 -0.411423 -0.839482 -1.227877 -0.370517 -0.860722 -1.000202 1.135545 0.845835 3.093531 0.880374 -2.349004 -0.043656 -1.167572 1.461819 -0.307491 -0.140174 0.929691 -0.659327 -0.037490 2.510830 1.278297 -0.907656 0.744897
thêm 0.959596 0.125621 0.783604 0.427039 -1.654365 -0.090654 -0.971717 0.225131 1.306578 0.222925 0.623096 -0.633552 1.034026 -0.366240 -0.066148 -0.370766 -0.853724 -1.019082 0.494380 -0.820955 0.977860 -0.582482 2.047876 -0.307348 0.237465
chính -0.441238 -0.453791 -0.436825 1.412086 0.399575 -0.395831 -0.428984 0.737555 1.525121 -0.147910 0.910125 -1.784784 1.659340 0.990485 -1.189666 0.847991 0.638554 -0.308852 0.553645 1.073881 0.505136 1.237137 0.282475 1.627962 -0.360683
hà_nội 0.541236 -0.388940 0.759095 -0.530728 -1.143802 0.627392 0.809228 0.163053 1.344386 2.088584 0.476696 0.079367 1.240946 -0.612002 -1.273589 -0.227686 -0.052217 2.591103 0.851408 0.518424 -0.347473 -0.110449 -1.493652 -0.140419 0.313716
trung_quốc -0.576708 0.663058 -0.568280 0.345345 0.033292 1.095388 -0.818721 -0.614255 2.149882 -0.486000 1.383031 0.814950 1.496053 -0.838925 -0.656595 -0.671792 -0.432055 1.373132 -0.217704 1.658089 -0.360136 0.364566 -0.718191 0.075829 0.820417
mỹ -0.904302 -0.013413 -0.503301 0.148758 -0.052252 0.724646 -0.493406 -1.060998 1.770393 -0.122239 1.563238 0.469036 1.362518 -1.020215 -1.243989 -0.580026 0.238721 1.826318 -0.153165 1.283425 -1.698900 0.430619 -0.606326 -0.039781 0.788797
gì 0.600543 -0.329642 0.329003 1.223908 -1.147269 -0.656727 -0.757613 0.397312 0.989480 -0.888287 -0.208997 -2.612575 1.474010 1.098976 -1.051366 0.096714 -1.397999 -0.797045 -1.141928 0.935457 1.749039 -0.604118 1.299286 1.579246 0.029728
em 1.538723 -1.116002 2.006036 1.757746 -0.145192 -0.616831 0.172516 -1.267200 1.335102 -0.235298 -0.382681 -1.625475 -0.370887 -0.429707 -0.835089 -0.900639 -0.309082 0.523248 0.650854 0.296888 0.441204 0.573020 1.660956 1.102765 0.591650
tỉnh 0.324755 -0.073365 0.244535 -0.706885 -0.067841 -0.039057 1.272927 0.260747 0.626025 1.560050 0.679895 0.185743 1.743680 -1.290849 -2.582093 -2.104750 -1.080179 1.754289 1.189956 -0.718796 -0.768573 0.371857 -1.839519 0.028648 0.183653
bà 0.488582 -0.596252 1.155542 1.435856 0.494289 -0.520698 -0.481675 -0.187237 0.633428 0.531141 0.089153 -1.729252 -1.373279 -0.385390 -1.670559 -0.949120 -0.951126 1.434146 1.251540 1.429019 -1.442911 0.346984 1.314907 0.180176 0.362833
nhau 1.298181 -0.951021 -0.973805 1.220455 -0.772493 -1.954736 0.453255 -0.369996 1.131793 0.501425 -0.958994 -1.548031 -0.586650 0.719134 0.322733 -0.918928 -1.186153 -1.132016 1.313309 0.265064 1.296319 0.019788 1.030352 -0.316797 1.503794
điểm 0.558287 -1.838293 0.564773 0.646154 -1.405934 -1.262465 -1.070174 0.261397 0.697922 2.362971 0.456365 -1.277716 0.009212 -0.666219 0.300210 0.911425 -0.883113 -0.683920 0.499758 -2.335831 -0.020513 -0.855573 0.471678 0.067557 -0.721603
chị 0.862573 -0.649193 1.896433 1.481946 0.428008 -0.688723 -0.506594 -0.538935 0.866724 0.795958 -0.403427 -1.432853 -1.305166 -0.510174 -1.660458 -1.024402 -1.328378 1.384681 0.991266 1.138186 -1.076564 0.441760 1.447601 0.319296 0.495571
sử_dụng 0.659108 0.409651 0.805461 -0.211283 -1.184298 0.618411 -0.358589 0.503563 1.583685 -1.188348 1.926936 0.119856 1.105815 -0.325662 -0.121835 0.639270 0.446708 -0.997551 0.583184 -0.025128 1.189462 -0.068415 0.500258 0.398632 0.186644
nhận 1.554921 -0.198015 0.304435 0.428350 -1.680801 0.298907 -1.065788 0.368852 1.944710 -0.998633 0.606006 -0.596491 -0.082610 -0.139900 0.510185 -0.586155 -0.258181 0.307555 -0.295455 0.644841 -1.124848 -0.294579 1.329085 1.685430 -0.518656
tp 0.271403 -0.249038 0.449888 -1.287358 -1.184978 0.732366 1.560961 -0.039248 1.285211 2.461473 0.552303 0.131866 1.218269 -1.105228 -1.766239 -0.685447 0.012510 2.389841 1.523392 0.163915 0.015692 0.076865 -2.196045 0.011265 -0.388155
đội -0.264159 0.326839 -1.369055 1.282154 -0.419474 -1.008067 0.945086 -0.367614 1.749990 -0.225566 1.515944 -0.398941 -0.762332 -0.164922 -0.162217 -0.069262 0.253463 0.001597 1.486939 0.781258 -0.124100 1.389181 -0.766008 1.604141 0.641209
hoặc 0.448597 0.100355 0.438884 0.822364 -0.277269 0.264124 0.122441 0.429388 0.969579 -0.641493 0.637463 -0.060906 0.356460 -0.308276 -0.383449 0.163074 -0.772152 0.012212 0.506907 -0.278952 1.046509 -0.233862 0.782498 0.446212 -0.392396
hoạt_động -1.285698 -0.091524 -0.435552 0.969259 -1.377330 1.192281 0.416847 -0.495878 0.609077 -0.469543 2.122248 -0.865080 1.977048 -0.533808 0.955357 0.609829 0.252328 -0.030892 0.300907 0.110959 1.395322 -1.599246 -0.547022 -0.391770 0.001789
phát_triển -1.270072 -0.377367 0.965937 0.433450 -0.345279 -0.091069 -0.392310 -0.469994 0.792455 0.415583 2.146295 -0.933247 2.088969 -1.000380 -0.335330 1.036432 1.242901 -0.469220 1.769110 -0.070911 0.065488 -2.302687 -0.861949 -0.939082 1.401703
một_số 0.369584 0.956583 0.314487 1.099309 -0.946105 0.585163 -0.698935 1.382018 1.082339 0.232341 1.429762 -2.528491 1.200649 -0.978852 -1.001607 -0.664319 -0.568055 -0.591122 0.191377 -0.165936 1.411431 0.044675 0.143490 0.349118 -0.718641
usd -0.001863 -0.531311 -0.126082 0.291988 -1.268161 0.156042 -0.807185 -1.674742 1.986590 0.621725 3.445573 1.414577 -0.996011 0.522026 0.008440 1.392037 -0.472461 0.092648 1.988393 -0.508523 -0.334542 1.444343 1.745137 -0.954849 0.824009
doanh_nghiệp -0.611515 0.846024 0.697877 0.748573 -0.724536 0.935051 0.070194 0.141422 0.776470 -0.949288 3.071192 -1.502563 0.719767 -0.849422 -1.100429 -0.042958 -0.406630 0.746692 -0.254928 -0.098868 -0.110351 -0.660725 -1.093424 0.897943 -0.058674
kinh_tế -2.345423 -0.979837 0.118568 1.028282 0.300172 0.424372 -0.450637 -0.837507 0.001143 0.610129 1.671909 -1.391086 2.908758 -1.130014 -1.033901 1.327248 0.167791 0.334688 0.145651 1.142426 -1.424890 -1.453614 -1.019349 -1.125251 -0.574962
xây_dựng -0.132925 -0.073829 0.202242 -0.098510 -1.237398 0.478020 0.320048 1.542638 0.844199 0.594081 2.021032 -0.676436 1.596120 -0.898078 -0.084813 -0.071845 1.355497 0.235023 2.506716 0.125199 0.382138 -1.714332 -0.281937 -0.277552 0.608254
lúc -0.156215 -0.521140 -0.117217 2.226413 -0.249154 -0.109912 0.430996 -1.008368 1.688171 0.606750 -0.267623 -0.435492 1.025680 0.103693 -0.411012 -0.302577 -1.047720 1.340641 0.367668 -0.347462 1.152220 0.044400 0.848424 0.493310 0.361765
chúng_tôi 0.320143 0.085543 1.515643 1.091338 -0.984752 -0.115159 -0.209409 -1.286909 2.003930 -0.022143 -0.007692 -1.162954 1.343670 0.008921 -0.182188 -1.582861 -0.716431 0.952996 0.351191 1.168841 -0.171494 -0.038007 0.632471 1.628016 0.862392
giữa -1.214080 0.688815 -1.672648 1.480916 -0.414976 -0.830145 0.952640 0.141754 1.270207 0.514673 0.677210 -0.654553 0.864162 0.592418 -0.518622 -0.536691 -0.585439 -0.150131 0.658790 -0.721722 0.530035 0.312791 -0.559253 -1.398668 1.127892
vụ -0.783384 -1.136435 -3.051347 1.525544 -0.135617 1.185199 -1.434311 1.078979 0.830894 0.204491 0.774516 -0.961507 -0.440869 -1.598398 0.440607 0.399035 -1.007862 0.559816 -0.702817 0.996817 1.114449 -0.245127 0.603228 1.009484 -1.950748
ngân_hàng -0.748044 1.474553 0.861251 0.400905 -0.346321 1.319995 0.742735 0.466316 0.802538 -1.011334 2.863301 -0.475211 1.046760 -0.231983 -1.668000 -0.114386 -0.193180 0.780085 0.553126 0.065971 -1.274451 -0.113591 -0.766068 -0.324276 -0.354105
dự_án -0.376895 -0.490091 -0.320428 0.488857 -1.194676 0.265081 -0.666024 2.396892 0.823172 1.017698 2.396417 -1.103908 0.998057 -0.519153 -0.194512 1.015634 0.640330 0.871389 0.666249 -0.705114 -0.045488 -1.406676 -0.857345 0.547405 -0.216181
vừa 0.603896 0.099610 1.080187 0.291316 -1.062887 0.223363 -0.263495 -0.524357 1.801329 0.002442 -0.098984 0.319122 0.472306 -0.300257 -0.020495 -0.159373 -0.266709 1.350683 0.394141 0.430512 0.236986 -1.224597 0.493138 1.009046 0.847609
từng 0.249618 0.566048 0.209124 1.232232 -0.528149 -0.601776 -0.638499 0.209751 1.621848 0.031115 0.033340 -1.127491 0.292990 -0.095300 -0.192550 -0.829435 -0.034331 0.435126 0.269416 -0.159854 0.289588 -0.321148 0.518243 1.110916 0.973825
ảnh 0.282836 -0.266478 0.149424 0.495262 0.120578 1.043709 -1.147056 0.093812 1.596753 1.984621 -1.472963 -1.040668 0.964699 0.227868 0.313334 0.113814 1.621375 0.568142 1.039688 0.879013 1.170519 0.702352 1.346506 -0.035244 -0.854856
mang 0.250475 -0.380989 0.806700 0.581712 -0.707979 -0.351943 -1.687741 -0.036848 1.555392 0.819144 -0.119630 -1.013329 -0.458811 -0.734693 0.254311 1.027915 0.213902 -0.121360 0.364173 1.046141 1.107841 -0.700741 0.249628 0.047234 0.516914
quá 0.711173 -0.594339 0.982550 1.044641 -1.015153 -1.326968 -0.054100 -1.224266 1.383888 -0.450900 -0.282869 -0.045017 0.294890 0.845179 -0.290958 1.797770 -2.068500 -0.579349 -0.724943 -0.185189 0.936229 -1.137460 0.353216 0.104537 0.660005
tốt 0.030933 -0.506978 0.571310 0.449647 -1.797865 -0.502207 0.458223 -1.220396 1.286586 -0.512574 0.918120 -1.190116 1.345449 0.648586 0.602863 1.247281 -0.014359 -1.444319 0.752946 0.131516 1.443042 -1.204059 -0.060476 0.527368 0.313822
gây 0.018081 -0.943949 0.225594 0.823453 0.260683 0.155199 -2.100581 -1.223144 0.383000 -0.293113 0.166278 0.001406 1.756108 -1.600023 0.123441 1.305007 -1.784785 -0.473177 -1.812547 0.923062 0.946523 -0.683029 0.216218 1.335222 -0.179642
tiếp_tục -0.598500 -0.126828 0.864434 0.667773 -1.023282 -0.216512 -0.666311 -0.842244 1.403952 0.237246 0.795947 0.555873 1.350406 -1.036900 0.730757 -0.760794 -0.802669 0.811247 0.852412 0.234233 -0.312739 -1.711900 -0.072022 1.140849 1.238407
ngay 0.688740 -0.648003 -0.903879 1.752574 -0.886475 0.059163 0.537754 -0.144114 1.812555 0.530574 0.338155 -0.124612 1.410947 -0.034798 0.289816 -0.450578 -0.955306 0.408784 0.542376 -0.362629 0.848555 0.980688 0.673055 0.367008 -0.489414
rồi 1.402087 -1.208227 0.165098 1.487593 -0.553404 -0.200952 0.142851 -0.265157 1.450138 -0.270785 -0.283455 0.379095 0.323690 -0.106227 0.068794 -0.019033 -0.844598 0.755276 0.425987 0.299670 0.805526 -0.028973 1.562060 0.377084 0.496707
gia_đình -0.131346 -0.643447 0.386854 2.577891 -0.316395 -0.673184 0.436907 -1.344917 -0.318853 0.245724 1.382371 -2.991715 -0.034619 -0.940605 -0.433582 -1.195360 -0.607152 -0.075785 0.735864 0.979394 -0.682072 0.310100 0.521084 0.059793 0.459787
– -0.437277 -0.377767 0.026679 -0.672052 0.069852 0.308909 -0.396560 -0.214713 1.181158 1.642541 0.362807 -0.695103 -0.209411 0.311315 -2.138928 0.239360 0.281814 1.498062 1.011720 0.589378 0.056795 0.298866 -0.006777 0.195517 -0.092590
mọi 0.756952 0.543473 0.200563 1.890535 -1.154551 0.037102 0.725750 0.152614 1.038130 -1.127152 0.783649 -1.510832 2.984759 0.652951 -0.056501 -1.132251 -0.758337 -1.085810 -0.446347 0.055894 0.887823 0.929017 0.360391 -0.280810 0.350080
đối_với -0.296616 -0.237780 -0.096604 0.364404 -0.681586 0.179253 -0.338932 -0.537015 0.702118 -0.514063 2.078354 -1.767180 0.609986 -0.347730 -0.838283 0.038046 -0.501417 -1.085474 -0.096613 0.107028 -0.233757 0.464754 -0.144664 0.666484 -0.848385
so -0.490116 0.398050 0.004893 0.752083 -0.710003 -1.822591 -1.178476 -1.158377 1.738513 0.599411 1.504193 -0.713668 -0.805000 0.908963 -1.256585 0.740819 -2.697417 -1.776354 0.569313 -1.775226 0.970602 -0.243745 0.903455 -0.673953 1.093308
vốn 0.466536 1.269545 0.701133 0.204095 -1.869223 -0.621699 -0.396430 0.756881 1.574046 -1.011843 2.494182 -0.679289 0.216135 0.375757 -0.903160 0.575365 -0.790686 -0.881738 0.377124 -0.164057 -1.345364 -1.140338 0.145688 -1.051834 1.216370
muốn 0.775016 0.224486 1.469893 1.206723 -1.226174 -0.432272 -0.424043 -0.686147 1.679389 -0.876443 0.114738 -0.430158 0.811447 -0.175952 0.414488 -0.940473 -0.344061 0.553927 -0.050806 1.061251 -0.106890 -0.617276 0.596670 1.469145 1.651627
trẻ 0.534111 0.999702 1.955805 1.520756 0.441920 -0.199719 0.406788 -1.418118 1.702757 -1.152011 0.588286 -1.432210 -0.499119 -1.242045 -1.362854 0.775158 0.910618 0.038865 -0.183521 -0.566583 1.092569 0.683522 -0.632743 0.562194 0.571057
tin 0.552110 0.567736 0.612880 -0.156583 -1.024319 1.179191 -1.230265 -0.314095 2.888521 0.115774 -0.691106 -0.501208 1.657671 0.253103 -0.652771 -0.214129 -0.053066 -0.088649 -0.205168 2.707321 -0.637411 0.948721 1.667044 -1.146440 -0.795655
thế_giới -1.338083 0.840737 0.600843 0.958362 -0.529694 0.406740 -0.786365 -1.386362 1.421081 1.457409 1.768266 -0.423291 1.534588 0.508565 -0.448231 1.222388 0.609058 0.664851 -0.320052 0.164032 -1.015941 1.314298 -0.883332 -1.244138 1.066037
giúp 0.434926 -0.414160 1.395327 0.513846 -0.016239 -0.589625 -0.652936 -1.217943 0.808879 -0.498187 1.607136 -0.119995 1.222643 -0.950601 -0.015129 -0.360555 0.232997 -0.853211 0.953928 -0.236776 0.081943 0.293135 0.434113 1.956299 0.955949
đạt 0.338399 -0.093322 1.086065 -0.968004 -2.248993 0.297413 -0.260122 -0.999044 2.354272 0.465230 1.582312 -0.419640 0.376820 0.578932 -1.010482 0.823720 -0.585857 0.184265 0.308020 -1.444821 -0.948816 -0.966694 0.006732 0.036303 -0.453208
mỗi 0.342131 -0.760577 -0.161629 1.014540 -0.813079 0.292374 0.099453 -1.151028 1.225460 0.674450 1.366771 -1.075880 -0.120354 0.135419 -0.803417 0.252191 -0.380833 0.166258 0.508095 -0.698282 1.114828 1.295386 1.320033 -0.321233 -0.056685
khu_vực 0.233410 -0.968977 -1.469882 0.659243 -0.396716 -0.456419 -0.027952 1.483073 0.692478 1.354680 2.036249 -0.816873 2.064037 -0.747268 -1.060813 0.312402 -0.455126 0.426189 -0.241674 -0.310369 -0.233383 0.741812 -2.203200 -0.614426 0.474511
vàng -0.169899 -0.115639 1.055618 1.167151 -0.439517 0.769964 -0.246998 0.137866 1.190143 0.512092 2.124404 0.980703 -0.660014 0.687006 0.534278 3.047206 0.773742 1.472736 0.972592 -0.130629 -0.054133 -0.223298 0.482838 -0.764266 0.603154
thông_tin -0.265026 1.676373 0.432537 -0.478393 -1.525416 1.316216 -0.692886 0.385048 1.569728 0.457232 -0.150675 -1.264743 2.498306 -0.138629 0.178586 -1.016195 -0.260274 -0.923737 0.075361 0.822071 0.770926 -0.046965 0.072213 -0.278922 -1.504320
bóng 0.781139 -0.809814 -1.701262 1.055096 -0.412145 -1.679755 0.139873 0.788240 2.635256 0.093054 0.308934 0.996068 0.240354 0.946594 0.451653 2.026644 0.471026 0.163446 0.703137 0.727592 0.215022 0.288043 -0.927182 0.327175 1.497055
ngoài 0.029436 0.259617 0.003695 2.161810 -0.266495 -0.493622 0.912718 0.737528 1.023442 0.514774 0.419057 -1.036409 1.625438 0.200267 -0.761080 0.416714 -0.410975 0.063281 0.641202 -0.110172 0.791249 0.602258 -0.319870 -1.113161 0.361474
ấy 0.318704 -0.657802 0.300082 1.808316 -0.325877 -0.961299 -0.521871 -0.980726 1.521050 -0.012500 -0.565191 -1.605101 0.738456 0.937570 -0.604722 -0.195680 -0.224719 0.678226 -0.367355 0.653138 0.227023 0.176590 1.250979 1.043435 1.194882
dùng 1.277910 0.200175 1.074561 0.267527 -0.109357 0.264932 -0.859368 0.607481 1.506482 -1.625183 0.862414 0.570318 0.577217 -0.753082 -0.134403 -0.167902 0.147757 -0.783487 0.475508 0.210188 1.329803 0.434271 1.440567 0.563630 0.681574
h -0.319975 -1.443286 -0.075639 0.000202 0.431520 0.371479 -0.849901 -0.165194 1.185758 1.829687 0.823924 -0.769622 -1.188224 -1.132322 -2.496753 -1.183018 -0.757896 2.167972 1.293301 -1.708893 1.103866 -0.047221 1.852430 0.514000 0.387928
cái 1.130358 -1.379385 -0.464459 2.349806 0.001578 -0.612870 -0.679667 0.927546 0.891838 -0.289066 -0.288022 -1.071390 0.473003 0.701765 -0.222204 1.016996 -0.102592 -0.594616 -0.103260 0.557062 0.990261 0.807436 2.350469 -0.405430 -0.030325
loại 0.843973 0.139404 0.747686 0.581594 0.199822 0.213140 -0.890843 2.020204 0.461741 -0.608791 1.923799 -0.371256 0.239645 -0.654597 -0.918824 1.409813 0.348868 -0.632181 -0.107497 -1.094200 1.947891 0.635296 0.487861 1.153699 -0.303468
mùa -0.017522 -2.336086 -2.307323 1.905875 -0.878135 -0.153647 0.285021 -0.798693 1.697201 0.116218 0.870171 -0.894789 -0.590082 0.279046 -0.346716 1.327743 0.703095 1.859700 -1.186821 -0.737081 -1.162306 0.224650 0.405879 -0.494741 0.128735
đặc_biệt -0.347186 -0.752937 -0.002042 -0.196179 -1.166509 0.097655 -0.641698 -1.516344 0.502052 0.041731 1.224513 -2.333094 0.969025 0.077206 -0.861192 0.435905 -0.028524 -0.928913 -0.927323 -0.432286 1.396445 -0.496834 -0.095341 0.631481 0.358006
bởi -0.471263 0.318154 0.295003 1.422570 -0.191214 -0.585014 -0.652507 -0.663078 1.049038 0.124173 0.349901 -1.070699 1.475734 0.373176 -0.065078 0.400852 -0.589601 -0.842270 0.094214 0.553003 0.617884 0.451428 0.257586 0.921043 0.088731
trường 0.804107 -0.527773 0.719057 1.794030 -0.369036 -0.083963 2.029124 0.843909 0.371200 0.362099 0.537237 -2.525135 0.148452 -1.044657 -1.331283 -0.378465 1.228274 1.512012 0.721209 -1.365375 -0.789449 -0.546360 -0.559353 0.002938 -0.973615
phía -0.267692 1.006440 -1.726074 1.479684 0.534565 -0.352771 0.886791 0.569417 2.494892 0.274736 0.303175 -0.428948 1.361118 -0.042595 -2.203441 -0.706896 -1.156478 0.667314 0.287154 0.443289 -0.269703 1.315862 -1.334728 -0.978291 -0.021395
tạo 0.883176 -0.735292 0.763472 1.076616 -0.780066 -0.642473 -1.048548 0.340530 0.228592 0.232148 0.769425 -0.358290 2.482332 -0.222294 0.764867 0.699279 0.220728 -0.797764 0.286378 0.235609 -0.028100 -1.119739 0.929300 0.317008 1.293590
giờ 0.321133 -1.454551 -0.495852 0.574920 -1.182863 0.269116 1.108317 -1.492822 2.506255 0.981601 -0.350418 0.312897 0.148060 0.767742 -0.880469 0.140437 -0.345296 2.105137 1.346975 -0.761760 1.686815 -0.330439 1.423400 0.360076 0.135527
m 0.291323 -0.260500 0.239872 -0.272443 0.267518 -0.751174 -0.540116 -1.184831 2.046513 1.225002 1.064317 0.471850 -0.967562 -0.016562 -1.378080 -0.225941 0.071553 0.254023 1.656714 -0.735171 -0.650207 2.600148 0.503555 0.279710 0.409080
sáng -0.376716 -1.793352 0.403562 0.733543 -0.074414 0.763942 -0.359344 -1.556723 1.363961 3.034377 -0.731833 0.296219 1.457276 -0.105412 -0.261941 0.398341 0.328107 1.627372 1.205006 -1.922646 1.962354 -0.357371 1.625457 -0.338574 0.137709
khá 0.134500 0.426042 1.163728 1.086105 -1.304633 -1.223034 -0.339822 -0.668290 1.356760 0.462959 -0.453673 -0.767942 0.881177 0.866620 0.127449 1.638104 -1.259423 -0.597435 -0.680119 -0.579518 0.893558 -1.438604 -0.475113 -0.130822 0.893135
nơi 1.606734 -0.924621 -0.543410 1.151316 -1.378135 -0.729723 0.624216 0.997655 0.610976 0.759105 0.629723 -1.746156 1.270561 0.019699 -0.789588 -0.175866 -0.720045 0.656444 -0.940101 0.457372 1.045322 0.769579 -1.027173 0.481736 0.659089
nó 0.814444 -0.599867 1.677026 1.627793 -0.065465 -0.713438 -0.573542 -0.466173 1.507660 -0.292955 -0.003613 -0.488991 1.194187 0.150865 -0.244118 0.242005 -0.572765 0.179268 0.293606 0.904327 0.597470 0.004395 0.835828 1.571838 0.904051
tham_gia -0.391958 0.820945 -0.844482 0.814382 -1.349403 0.555471 0.073381 -0.493086 1.034196 -0.560021 1.292290 -1.164640 0.462017 -1.120363 1.235254 -1.412662 1.005551 0.217935 0.287757 -0.256136 1.326409 -1.085781 -0.764222 1.191445 1.442518
mẹ 0.890566 -0.533447 1.390428 1.822507 0.347974 -0.101127 0.317611 -1.374253 0.711703 -0.923679 0.847440 -1.552492 -1.049090 -0.629769 -1.189039 -0.551260 -0.397999 0.509861 0.932161 1.543109 0.220446 0.659753 1.345846 0.374684 0.720533
vấn_đề -0.289751 -0.413994 -0.568478 0.586251 -1.545936 -0.167845 -0.234558 0.430562 0.569614 0.345865 0.642127 -1.700034 2.664256 0.278232 -0.301140 0.186769 -1.458202 -0.753852 -1.160467 1.260240 -0.146546 -0.189339 -0.873440 -0.234614 -0.803643
luôn 0.362005 -0.000402 1.770924 0.814814 -0.797730 -1.024489 -0.119282 -1.080449 1.005106 0.049851 -0.037821 -0.482185 0.893184 -0.130816 0.218371 -0.428933 -0.214010 0.233374 0.650233 1.173625 -0.136610 -0.213152 -0.048253 0.866044 1.965703
huyện 0.856651 -1.521514 0.363049 -0.996869 0.473450 -0.321691 0.876202 1.233133 -0.626872 1.652148 0.222453 -0.259460 1.614345 -1.704306 -2.366286 -1.954757 -1.000555 1.089005 1.352247 -0.096605 -0.507028 0.119837 -1.761340 0.751311 0.088055
gái 1.337022 -0.087882 1.629553 2.135752 1.338849 -0.740618 -0.304660 -0.866257 1.506628 -0.420138 -0.551439 -1.086449 -0.713542 -0.985939 -1.317794 0.273099 0.831368 0.785021 -0.176272 0.290773 1.038602 0.722852 0.190808 0.127409 1.891188
người_dân 1.131831 0.214053 0.271680 0.561247 -0.975485 0.066605 0.499942 -0.808122 0.493738 0.166340 1.556142 -1.388095 1.195427 -1.498772 -0.755676 -1.456934 -1.140848 -0.048850 -0.369093 1.089652 0.391833 1.533997 -1.483862 -0.023955 0.938401
phần 0.459932 -0.219825 -0.701654 1.348534 -0.829625 -1.266551 0.373200 0.971218 0.671610 0.333367 0.065990 -1.593309 0.103538 1.043747 0.078191 0.695507 -0.117700 -1.372594 0.962948 -0.869849 0.620492 -0.308223 0.779165 -0.190970 -0.121784
tìm 2.007662 -0.298685 0.922019 1.073825 -1.866703 -0.480479 -0.503677 1.180426 1.240556 0.076576 0.068328 -0.663028 1.278253 -1.038706 1.234799 -0.804209 -0.206725 0.236373 -0.075640 1.388637 0.418186 0.024072 -0.056999 0.582492 1.115674
tên 0.803311 0.237284 0.611318 1.017035 0.328007 -0.423853 -2.109912 1.887703 1.867030 0.173097 -0.296846 -1.601135 -0.072739 -0.649773 -0.932245 0.071597 0.480226 0.071711 -0.256336 1.049429 0.099999 0.568023 0.869622 0.100708 0.245963
gặp 0.199726 -0.451781 -0.963640 1.110183 -1.035580 -1.079054 0.024857 -0.439786 0.996203 0.301728 -0.396460 -0.981729 0.016230 -0.133013 -0.280930 -0.470854 -1.948339 0.937969 -1.409550 0.264092 0.571254 0.544425 -0.844018 1.845744 0.400086
diễn -0.242758 0.067203 -1.197726 1.608308 -0.875555 -0.314819 -0.787350 0.332961 1.908197 0.870772 -0.378015 -0.856324 -0.176165 0.320539 0.512326 0.277507 0.449372 2.170872 -0.616549 -0.484510 0.769271 -1.803084 -0.612430 1.348050 1.627735
tàu 0.043764 0.604397 -1.160743 0.418045 0.985926 1.060949 -0.382138 0.083693 1.842925 -0.447945 1.332758 1.142689 -0.686194 -1.996284 -0.221890 0.229639 0.449652 0.606252 1.054993 1.317945 2.395143 1.269140 -0.786258 0.400550 0.310713
khả_năng -0.380730 0.490138 0.623396 0.169093 -0.795636 -0.348738 -0.008613 -0.922201 1.426285 -0.815736 0.306481 0.352498 1.579464 -0.228099 0.615977 0.323158 -0.464485 -1.211898 0.248790 0.200728 0.633449 -0.469209 -0.009845 0.514461 0.039940
ta 1.069447 -0.073625 1.353119 0.983017 -0.137434 -0.512850 -0.254190 -0.478622 1.492065 -1.034245 0.438847 -0.303788 0.592182 -0.861357 -1.404637 -0.940160 -0.265125 1.278672 -0.375337 1.619664 -0.719040 0.878833 0.249081 0.522737 2.044556
chính_phủ -1.757549 0.864800 -1.095226 -0.169932 -0.909535 0.997175 0.585046 -0.636370 1.606412 -0.562283 1.950717 -0.270094 0.970333 -0.631311 -0.900329 -1.855783 0.168075 1.858263 1.015699 1.355302 -2.098715 -0.504063 0.223835 0.969120 -0.028138
tính -0.191749 -0.542385 0.658887 0.072060 -1.717832 -0.436604 0.111112 -0.375741 1.080114 0.157464 0.311201 -1.073074 0.843667 0.691992 0.229303 1.194076 -0.489223 -1.073817 0.764862 0.919639 -0.183497 -0.826346 0.379229 -0.757763 -0.547376
quyết_định -0.250100 0.613471 -0.791772 1.158886 -1.466293 -0.397669 -0.594277 0.376819 1.697226 -0.125479 0.270548 -1.197175 0.150445 -0.208511 0.966821 -1.326885 -0.983634 0.017575 0.548666 -0.005507 -1.117729 -1.661604 0.594400 1.858554 -0.539091
lấy 1.743725 0.080668 0.455642 1.046499 -1.063156 -0.191332 -1.233726 1.396813 1.155924 -0.221222 0.265364 -0.165441 -0.098616 -0.647484 0.731253 -0.357470 -0.161627 -0.142163 0.843016 1.252611 0.270243 0.115831 2.322720 0.262284 0.550100
cơ_quan -1.295766 0.347353 -1.148361 0.456902 -0.900776 0.359862 1.666423 0.463140 0.724149 -0.124980 1.457961 -1.428192 0.604873 -1.331293 -0.788583 -0.908461 -1.449229 0.544439 1.217807 2.379085 -0.229822 -0.473832 -1.244620 0.642476 -1.671174
đầu_tiên -0.077454 0.188487 -0.934562 1.286521 -0.774250 0.251258 -0.601605 -0.402216 2.127976 0.397867 0.502455 -1.175576 0.490686 0.059049 0.339138 -0.164967 0.692037 0.579845 -0.583090 -1.146981 0.588636 0.525116 0.282764 0.657737 0.115008
chương_trình -1.298613 0.262563 -0.550783 -0.024657 -1.095426 1.683652 -0.618089 -0.710179 1.317939 -0.325107 0.932072 -1.347261 0.940361 -0.199651 0.848778 -0.009871 1.885815 0.016288 0.106341 -0.886400 1.115889 -1.615893 0.811044 -0.086752 -0.379317
ăn 1.586652 -1.441660 1.041131 0.981750 -0.955290 0.523779 0.848995 -0.283042 -0.363838 -0.415944 0.516561 -0.536789 -0.460182 0.564035 -0.443324 1.299237 -0.248112 0.874146 0.031704 -0.459863 2.978452 -0.358302 1.931877 0.059920 0.778254
giải 0.441996 -1.645551 -1.936194 -0.133912 -2.034061 0.065755 -0.464274 -0.846250 1.905988 -0.123816 1.361787 -1.171912 -1.656833 0.600072 0.054767 1.075388 1.650649 0.995924 -1.479303 -1.030570 -1.054343 0.168607 0.245608 0.439653 0.004875
thi 0.355309 -1.671887 -0.149984 0.729447 -1.533469 -0.431937 0.536416 0.995945 0.555008 1.233152 -0.234530 -2.615237 -0.909986 0.300532 1.073428 -0.134540 2.202817 1.249042 0.785242 -1.510131 0.165934 -1.369291 0.215717 1.549439 -0.175806
công_an 0.155620 0.018135 -0.446317 -0.597010 0.068595 -0.087202 0.873527 0.665199 1.088127 1.367329 0.586784 -0.264566 0.113033 -2.776910 -1.517085 -1.683423 -1.038577 1.008611 2.528262 2.097616 0.969417 0.550639 -1.448297 1.529876 -0.836904
hiện -0.278624 0.423435 1.222442 0.872906 -0.561219 -0.380500 -0.469525 0.427835 1.747085 0.731825 1.120883 -0.356668 0.928970 -0.581143 -0.922968 0.479095 -0.975959 1.083137 0.562997 0.838150 -0.431223 0.083319 -0.680989 1.179459 -0.024689
không_thể 0.750636 -0.346260 1.308931 0.823962 -1.237811 -0.761944 -0.170156 -0.292470 1.366585 -1.022253 0.073368 0.080417 1.708412 0.545565 0.662663 -0.226576 -0.709549 0.055972 -0.344841 1.015722 0.096776 -0.255096 0.099989 2.127140 1.076774
phim -0.705447 0.496279 -1.256543 0.443326 -0.322872 1.184645 -0.906249 0.408767 1.982905 -0.094846 -0.418339 -0.909583 -0.030287 0.934716 -0.084782 0.852987 2.070275 1.599442 -0.202889 0.562579 1.744860 -0.991015 0.619357 0.633920 0.567214
nguồn 0.914262 -0.176300 0.730537 -0.713759 -1.281616 0.962957 -0.764000 1.440417 1.049138 -0.273703 2.020869 -0.107449 2.831540 -0.163575 -1.497687 0.242036 -0.451566 -1.342844 0.737144 0.718377 -0.008830 -0.279593 1.927799 -2.354162 -0.616302
lời 0.862228 0.898392 -1.127323 0.243764 -1.071490 0.891364 -0.952870 -0.160353 1.143748 -0.929307 -1.155597 -1.926368 -0.597638 0.229107 -0.410645 -2.622712 -1.391283 -1.140001 -0.199537 1.564523 -0.165769 0.234156 3.312280 -0.591825 -1.001261
đất 1.297217 -0.560563 -0.616106 0.699008 -0.790501 -0.229107 0.507439 1.682757 1.133931 -0.306829 2.210692 0.637660 -0.050389 0.080984 -0.621501 2.205935 0.288498 0.464890 1.013437 0.795887 -0.625156 0.447976 -0.640508 -0.733202 0.333765
thành_phố 0.148867 -0.221154 -0.508866 -0.701145 -1.078826 -0.234388 0.905659 0.642560 0.957113 2.205857 0.686513 -0.699391 1.697826 -0.573078 -1.739064 -1.044245 0.058674 1.877896 0.705519 0.387331 -0.268374 0.009298 -2.042325 -0.166881 1.109709
xuống 1.611529 -0.329708 -0.036697 2.171127 -0.111565 -1.111536 0.136062 0.657189 2.363557 0.761432 0.754629 1.733085 0.161963 -1.302129 0.221430 0.746944 -1.882966 0.286443 0.991173 -0.810433 -0.506424 0.538215 -0.364683 -0.919102 0.491902
sản_xuất -0.693505 -0.050105 0.349832 0.575523 -0.686923 1.604761 0.123360 0.230661 0.662393 -0.665909 2.918807 -0.065852 1.132540 -0.775994 0.332870 1.695015 1.025063 0.276744 1.215009 0.130325 1.368275 -1.102489 -0.360733 -0.034137 -0.408330
xem 0.918559 0.560115 1.101211 0.670686 -1.421418 0.944121 -0.545938 -0.352695 2.330918 0.836813 -1.336730 -1.229326 0.590690 -0.350895 0.402874 -0.712125 0.247114 0.947387 -0.284456 -0.021907 2.040290 0.143988 0.755125 0.675480 -0.436106
ai 1.568959 0.501557 0.793008 1.118995 -1.302311 -0.739769 0.183838 0.375508 1.849112 -1.812792 -0.427975 -1.150168 0.945191 1.079700 -1.175966 -0.323040 -1.523566 -0.118010 -0.956928 1.121810 0.979415 0.310313 0.773021 1.256795 0.970355
vn -1.048091 0.109972 0.294593 -0.284475 -0.285518 0.989224 -0.684304 -1.062423 2.009657 1.321046 1.013300 -0.098459 0.298495 -0.354858 -0.879504 0.041703 0.306667 1.406101 1.010760 0.389103 0.476273 0.686269 -0.198097 0.756087 -0.288323
mất 1.284715 -1.261394 0.071796 0.740592 -1.383105 -0.985306 -0.532652 -0.864779 1.004359 -0.106684 1.282723 1.072723 0.558333 -1.254726 1.097728 0.527982 -1.472389 -1.202743 0.567558 0.875924 0.272615 0.485608 1.170263 0.917820 0.903806
nhỏ 1.080750 0.113301 1.293168 1.947424 0.258672 -0.687854 -0.048739 1.047799 0.944475 -0.047184 0.515087 -1.201345 -0.431002 -0.600277 -1.424285 1.147687 -0.845075 0.307594 -0.233632 -0.978348 0.825469 -0.625048 0.363185 -0.658808 0.485824
ngành -0.894371 0.226771 0.860306 0.405482 0.694001 1.460002 0.592877 0.853962 0.736957 -0.671517 2.140443 -1.297700 0.806260 -1.199795 -1.935300 0.586586 0.908167 0.665133 1.447235 0.232478 0.886856 -0.618697 -0.747027 -0.428158 -0.621407
sản_phẩm 0.123131 0.980684 1.572103 0.174141 -0.787834 1.298483 -0.888970 0.600457 0.819254 -0.429925 1.954472 -0.932898 0.488996 0.136841 0.054386 1.752056 1.582174 -0.579990 0.208986 -0.188030 1.400647 -0.072239 0.223823 -0.284985 -0.015059
chuyện 0.247222 -0.091190 -0.340905 2.214951 -0.744618 -0.066344 0.243509 -0.238881 0.525941 -0.941799 -0.779893 -2.209043 0.864881 1.323226 -0.220038 -0.290078 -0.878698 0.427570 -1.285890 1.546125 0.317598 -0.569179 1.233979 -0.047139 0.377711
xã 0.867067 -0.780536 -0.168079 -0.893543 -0.197648 -0.778630 1.030928 1.351842 -0.311141 1.447729 0.726974 -1.369223 0.658620 -1.172194 -2.461423 -1.958351 -0.574909 0.839517 1.122022 -0.042910 -0.018606 0.481389 -1.071078 0.284859 0.604276
kinh_doanh -1.294511 -0.032543 0.316391 0.871184 -1.500301 1.541479 0.207996 -0.069441 0.373011 -0.249029 2.580244 -1.764457 -0.195512 -0.092807 0.333389 2.041870 0.228123 0.701913 0.406772 0.382992 1.084614 -2.124847 -0.530469 -0.293867 -0.924220
phòng 0.558011 -0.801006 -0.805903 1.450245 -1.091695 0.104479 2.044083 1.246098 -0.244301 0.762802 1.442400 -0.808924 -0.944483 -1.008005 0.437577 0.630600 -0.014501 0.798966 2.101547 0.528281 1.301386 0.312698 0.002922 -0.376820 -1.122543
vòng 0.824421 -0.973199 -1.637907 1.154130 -0.250115 -1.338979 0.038636 0.855776 1.337094 1.784932 -0.567908 -0.297374 0.161837 -0.280014 1.024243 -0.305501 0.134193 -0.827107 0.174647 -3.566922 0.926142 1.042499 0.014325 0.203309 -0.365293
giữ 0.072694 -0.129251 1.171562 1.433760 -1.267986 -1.850730 -0.494411 0.760958 0.644604 0.560409 1.498784 0.171020 -0.150074 -0.647460 1.382521 0.929483 -0.594136 -0.685363 2.188148 1.655321 -0.956343 0.231665 0.613091 1.439519 0.486170
bé 1.479409 -0.576144 2.198802 1.995404 0.966234 -0.388757 -0.245241 -1.326617 1.171291 -0.459484 -0.284409 -1.256322 -0.601702 -1.368770 -1.224765 -0.561002 0.269201 0.642694 0.026666 -0.481329 0.619039 0.993522 1.082378 0.761777 0.927716
tuần -0.627442 -0.602386 -1.420848 1.696279 -0.799106 0.699149 0.297402 -1.441211 2.165306 1.178598 0.733035 -0.251933 0.473229 0.577859 -0.420809 0.150190 -0.483895 1.399237 -0.111956 -1.802828 0.779398 0.965171 1.321170 -0.788525 -0.349140
dưới 0.698135 0.277638 -0.364549 2.031409 0.313216 -0.483663 0.551935 0.898928 1.835600 0.162547 0.377781 0.074996 1.515758 0.185679 -0.742487 0.907297 -0.533445 -0.542110 0.358559 -0.944109 0.199392 1.208664 0.037057 -1.236398 -0.214318
cuối -0.101796 -0.716507 -1.975157 1.810310 -1.047565 0.361661 0.921277 -0.859459 2.126149 0.829399 0.357492 -0.701402 0.433749 0.657216 -0.591025 -0.200606 -0.172777 1.235896 -0.328335 -2.396901 0.085600 0.596459 1.301118 -1.542898 -0.467903
thuộc -0.336354 0.457602 -0.466394 0.110445 0.131546 -0.646614 -0.340311 1.530326 1.060728 0.682973 1.533629 -1.669065 0.438005 -0.621211 -1.771292 -0.037124 0.155192 -0.194833 0.893480 -0.020131 -0.005986 0.254564 -1.451542 0.366076 0.103802
quy_định -0.534594 0.368470 -0.663213 -0.590030 -1.742903 0.211421 0.547801 1.048031 1.712794 -0.064322 0.488197 -1.544285 1.193888 1.146680 -1.346937 -0.179707 -1.572615 -0.313174 1.075908 0.166059 0.094594 -1.542070 -0.222268 1.086928 -2.198094
biển 0.359131 -0.467693 -1.059678 0.010430 0.037388 -0.068994 -0.108368 0.992091 1.793524 1.426364 -0.025593 0.356530 0.702915 -0.910414 -0.798044 1.440039 -0.510145 0.619504 0.909972 2.372087 0.622862 0.358471 -1.820255 -2.018232 0.242034
quản_lý -1.198439 -0.357107 -0.090910 0.386063 -0.888723 0.308697 0.875534 0.557080 -0.064328 -0.283477 2.491727 -1.100721 1.175953 -0.647406 -0.108781 0.777111 -0.397943 -0.455406 1.744758 1.041945 0.294272 -1.263020 -1.165407 0.058908 -1.010408
nhóm -0.736112 0.676646 -0.337169 1.280329 0.866947 0.513631 -1.318449 0.415644 1.110284 -0.017220 1.588694 -1.870148 -0.492173 -1.761243 -0.739667 -0.194025 0.337751 -0.133242 0.402436 -0.094705 1.381329 0.366946 -0.461053 0.701447 0.091622
nga -0.463610 0.115546 -0.714146 -0.014222 0.179745 0.435458 -0.965649 -0.503924 1.799602 -0.500122 1.043267 0.390477 1.493320 -0.728886 -1.248979 -1.403339 0.328171 0.953884 -0.002872 1.496789 -1.650837 0.752139 0.065723 -0.318362 1.183355
đúng 0.403810 -0.858490 -0.216944 -0.046432 -1.558201 -0.392744 0.487085 0.671564 1.931488 0.166027 -0.422266 -1.092145 1.293683 1.084421 -0.455094 0.242372 -0.804491 -0.309488 1.536629 0.419329 1.267735 -1.312539 1.153385 0.765821 -0.887173
chủ_tịch -1.870689 -0.006035 -1.729143 -0.672186 0.363767 -0.020758 -0.219270 0.822246 0.019422 0.620462 2.124031 -0.832580 -0.203000 -0.275693 -2.425556 -2.263127 0.878881 1.348304 2.491750 1.591573 -1.353222 0.535882 1.379769 1.199890 1.275017
xảy 0.401567 -0.229912 -1.221720 1.595612 -0.725375 -0.074750 -1.140015 0.825270 1.518616 0.509058 -0.715608 -0.030559 1.620984 -0.764957 0.269075 0.540783 -2.054884 1.558730 -2.284040 0.259730 1.398998 -0.716761 -0.763988 1.905240 -0.040394
dù -0.104652 -0.124628 0.845478 1.265135 -0.821658 -0.678996 0.163952 -0.709135 1.690810 0.019684 0.276169 -0.622039 0.686227 0.819450 -0.648104 0.670133 -0.987956 0.474087 0.289920 0.464040 0.332715 0.012639 0.308571 1.292017 0.347703
sống 0.999167 -1.293786 0.658925 1.170483 -1.114305 -1.128489 1.147002 -0.707286 -0.340307 0.531044 0.213654 -0.752683 0.932419 -0.042856 0.525259 0.476492 -0.193619 -0.403179 0.930323 1.417402 1.322018 0.674289 0.090784 -0.943885 1.829548
mạnh -0.714192 -0.131410 -0.574378 1.324682 -0.078900 -1.044275 -0.737501 -0.811071 2.142534 -0.620601 1.130856 0.670688 1.014119 0.226008 -0.633213 1.309462 -1.466287 -0.922834 0.000240 -1.115264 -0.540428 -1.313296 0.585374 -0.795658 0.718150
chủ 0.648209 1.138503 -0.392697 1.813847 -0.771912 -0.150794 0.826682 1.748607 0.889266 -0.381745 2.089390 -1.676890 -1.216754 -0.304188 -0.684202 0.109217 0.365001 0.869161 1.440080 1.449600 0.140110 0.509542 -0.480959 0.625979 0.481089
sang 0.419997 0.451197 -0.534158 1.888218 -0.323903 0.305059 0.165363 0.057046 2.315340 -0.512356 0.750798 0.310019 -0.172133 -1.106869 -0.025080 0.057874 0.015740 1.156142 0.520099 -0.156929 -0.290464 -0.850623 -0.365644 -1.077441 1.081507
cấp 0.371965 -0.128406 -0.793907 0.321885 -0.518726 0.097703 1.383721 1.944319 1.382932 -0.692275 1.623095 -0.213626 0.655070 -0.749097 -1.690649 -1.115878 -0.537960 0.620485 1.405630 -1.501030 -0.898434 -0.793096 0.354289 -0.533152 -0.908581
học 1.303921 -0.958119 0.685521 1.096384 -0.838036 0.342855 2.159498 0.322247 1.176532 -1.218859 0.031779 -1.123351 -0.151570 -0.375361 -0.726555 -0.356456 1.085570 1.078590 1.462479 -0.841109 1.060478 -1.760245 0.735039 -0.390696 0.351301
kể 0.182175 0.037306 -0.078140 1.064950 -1.007860 0.129932 -0.332299 -0.588008 2.075628 0.600329 -0.613965 -1.213784 0.444500 0.431191 -1.103311 -0.321045 -1.312010 1.224698 -0.828551 0.467699 -0.637752 0.088776 0.878901 -0.563562 -0.372658
nữa 0.652769 -1.054719 -0.064899 1.213152 -0.992427 -0.478923 -0.566524 -0.600018 1.580015 -0.082365 0.406210 -1.107648 0.864044 0.962298 -0.912567 0.257274 -0.703489 0.247375 -0.647208 -0.537520 0.829065 0.381209 1.635371 0.874270 0.525263
bài 0.437433 0.452836 -0.900902 0.727557 -0.765649 1.391863 0.184446 1.676822 1.841229 -0.319384 -1.365371 -1.974778 -0.420996 0.095503 -0.272925 -0.391609 1.113415 0.783882 0.207223 0.565577 2.028197 -0.492902 1.349422 0.220597 -1.831521
thế 0.469364 -1.984370 0.014295 1.492898 -0.233581 -1.608942 0.255539 -0.179351 1.632613 -0.947004 0.261077 0.055427 1.830639 2.278140 -1.610521 1.522985 -0.962100 0.420325 0.033324 0.580975 -0.766511 -0.585420 1.499753 0.287730 1.303656
phút 1.019801 -1.072459 -1.039319 0.937059 -1.307079 -0.327993 1.060374 -1.000257 1.826526 1.114091 -0.410332 0.001006 0.451113 0.793748 -0.292532 -0.468130 -0.624360 0.856887 -0.555061 -3.340486 1.239225 0.974736 1.131500 0.708900 -0.586551
nhà_nước -1.127730 1.039527 0.114954 -0.148422 -1.476958 0.049274 0.506958 0.519288 1.036141 -0.993291 3.016755 -0.787491 0.704568 -0.081447 -1.658949 -0.533612 -0.914376 0.889530 0.352382 0.634175 -2.629132 -0.770046 -0.777730 0.672181 -0.193966
ba 0.415929 -0.632037 -1.324107 1.123701 0.090580 -0.565236 -0.369365 0.093095 1.726449 0.464570 0.914224 -1.169719 -0.576340 -0.044929 -1.255946 -0.207413 -0.275885 -0.042224 0.688303 -0.849851 0.757694 0.921766 1.022083 0.157698 0.315045
khó_khăn -0.771044 -1.504159 -0.458212 1.714193 -0.971388 -0.996998 0.033484 -1.284744 -0.456315 0.301361 0.636834 -2.114920 2.816774 -0.151034 -0.502771 -0.108442 -1.769549 -0.595140 -2.128652 -1.135978 0.757754 -1.019041 -0.258677 -0.057536 0.387096
quốc_gia -0.782508 -0.533703 -1.462942 -0.489803 -0.682837 -0.045487 -0.045791 0.532830 0.731143 0.624370 2.103488 -1.269415 1.290492 -0.544873 -1.035010 0.340635 0.867620 0.475037 -0.304133 0.170100 -0.564806 0.128955 -2.043972 0.271338 0.109158
thành 0.872984 -0.573057 -0.803460 1.285418 -0.056696 -1.134507 -1.113314 1.948623 0.646394 0.122847 0.647131 -0.572275 0.491632 -0.381248 -0.277837 0.254871 0.669261 0.186855 0.656967 0.301445 -0.533361 -0.984499 0.749797 0.396938 1.587469
khu 0.849639 -2.314622 -0.747304 0.414468 -0.726386 -0.060038 0.104463 2.350709 -0.723223 1.718188 2.450160 -2.236389 0.688085 -1.140136 -0.458106 1.162365 1.100988 0.018614 0.735734 -0.564948 0.383044 -0.220213 -1.807052 -1.045364 -0.204439
đấu -0.175050 0.115613 -1.124599 1.831918 -0.630435 -1.594313 -0.561456 0.664500 1.768419 1.026459 -1.009660 -1.110834 -0.774369 1.213712 0.666576 0.147093 0.318663 0.843825 -1.348081 -3.033322 0.279198 -0.181729 0.165526 1.000152 0.758451
nhằm 0.261461 -1.009827 0.091181 -0.243936 -1.171113 0.255456 -1.028210 -0.543682 0.909567 -0.146265 1.718282 0.058307 2.340981 -0.972828 0.716436 -0.613817 -0.031510 -1.046568 0.565954 0.171926 -0.012463 -0.862933 0.276540 0.510685 0.535232
yêu_cầu 0.055217 0.915851 0.325795 -0.330632 -1.411060 0.594027 0.476077 0.039063 1.723185 -0.582509 0.970014 -0.783661 1.006513 -0.460549 -0.419337 -1.456322 -1.052646 -0.002470 1.437257 1.437871 -0.574827 -0.596813 -0.128215 0.887115 -0.701283
cổ_phiếu -0.792735 1.891486 1.456309 0.760909 -0.055102 0.874637 -1.661952 0.396533 1.069394 -0.000050 3.187679 0.132367 -1.295672 -0.761481 -0.225982 1.387402 -0.384906 -0.155771 0.659188 -1.618246 -0.540283 0.082635 0.682987 0.790429 -0.616502
cầu_thủ 0.220707 1.394715 0.134928 0.438132 -0.436835 -0.678808 0.018384 -0.347589 1.849740 -0.545705 0.836462 -0.953492 -0.672767 0.363800 -0.358098 0.477336 1.250435 -0.229685 -0.239142 -0.628424 0.016383 1.434246 -1.234395 1.800010 0.397835
hỗ_trợ 0.460900 -0.016728 0.794091 -0.282253 -1.070855 0.523382 -0.011510 -0.763003 1.239088 -0.418345 2.391206 -0.549433 1.705661 -1.069831 0.026447 -0.566482 0.321681 -1.696505 1.133178 -1.184544 -0.346133 -0.402700 -0.183938 0.056885 -0.280651
tất_cả 0.586432 0.854749 0.604770 1.340263 -0.859881 0.143412 0.104012 -0.065116 0.977093 -0.799023 1.195213 -1.327150 1.596519 -0.054077 -0.120852 -1.286802 -0.770346 -1.003919 -0.080819 -0.102288 1.052739 0.923204 0.486352 1.131381 0.135013
hiện_nay -1.024399 -0.226555 0.826319 0.967855 -0.564253 0.128035 0.011534 -0.928207 1.387338 0.517010 1.341830 -0.956351 2.065408 0.537596 -1.300944 1.304628 -0.336475 0.895254 -0.526751 -0.023432 -0.061722 0.300354 -0.764045 0.497568 -0.320171
tay 1.243042 0.310219 0.145235 1.234802 0.445244 -1.249256 -0.340127 0.508045 1.898688 -1.033750 -0.001837 0.568784 -0.194277 -0.480288 0.606052 -0.752509 0.448493 -1.830087 1.637938 0.226570 -0.211236 1.289631 1.580134 -0.840178 1.052918
hệ_thống -0.217642 0.514105 0.166049 0.087131 -0.139702 0.926820 0.271899 1.767558 0.607326 -0.068949 1.693273 0.251708 2.776900 -0.447069 0.103109 0.351551 1.006099 -0.943120 1.013706 -0.416686 0.258556 0.902786 -0.273726 -0.399211 -1.714385
đủ 1.345749 -0.341661 1.427390 -0.532780 -2.249594 -0.715871 0.494735 0.011045 1.178748 -1.401673 1.225291 -0.448820 1.306815 0.699748 -0.669812 0.367053 -0.476088 -1.585611 0.423874 -0.645292 0.856546 -0.875338 1.092585 0.167900 0.928413
chiều -0.029024 -0.402502 -0.547440 0.699811 -0.967843 -0.540094 0.766707 -0.714288 1.888566 2.455763 -0.668475 -0.328044 -0.529179 0.580937 -0.962937 -0.700596 -1.933322 1.179557 2.183831 -0.914056 1.446126 -0.900651 1.046647 -1.634915 0.738269
giao_dịch -1.165407 1.005424 0.134904 0.746261 -1.998347 1.184464 0.715139 -0.091625 1.106778 1.162080 1.749372 -0.692895 0.199344 0.993354 0.674353 0.793130 -0.595983 1.199725 0.264358 -2.286993 0.438710 -0.997514 -0.117873 -0.246911 -0.999297
đẹp 0.484364 -0.247017 0.846511 0.982928 -0.080156 -1.105643 -0.450838 -1.341122 0.788560 1.513799 -1.190715 -1.488313 0.287330 1.266257 -0.370404 1.918821 0.905167 -0.614778 0.099560 0.707250 1.112563 0.735055 0.122234 -0.811562 1.414097
chồng 1.177483 -0.572248 0.451131 2.526164 -0.010156 -0.612294 0.546130 -1.230673 1.111660 -0.622839 -0.017132 -1.616280 -1.183140 -0.303941 -0.117883 -0.731959 -0.659864 0.349888 0.789627 2.163810 -0.157880 1.036219 1.378562 0.432939 0.709328
quốc_tế -0.411276 -0.041748 -0.020488 -0.563415 -0.923664 1.343784 0.908253 -1.823180 0.476576 0.544276 0.714531 -1.111783 1.132123 -0.738220 -0.479886 -0.611738 0.700769 0.608580 -0.536119 -0.294405 -0.107468 -0.544114 -1.785896 -1.126383 -0.039651
chơi 0.866999 0.028149 -0.238445 0.564694 -1.054631 -0.726223 0.957393 -0.697572 1.732560 -0.432518 -0.248020 0.057518 -0.205215 0.869822 0.487354 0.879000 0.908956 0.435520 -0.176425 -0.002788 1.611951 -0.018804 -0.931140 0.381716 2.059237
nam 0.396663 0.426384 -1.233354 0.172085 0.714559 -0.640490 -0.163881 0.455938 2.273038 -0.371970 0.040630 -1.312876 -0.474083 -0.404242 -2.917616 -0.672251 0.140173 1.048366 -0.074337 0.669656 0.041691 0.414135 -1.329446 -0.443934 1.488327
hết 1.492729 -0.613008 -0.126003 1.032621 -1.750703 0.012583 0.174517 -0.238727 1.456525 -1.021413 0.533921 0.116501 0.568659 0.097674 0.079030 0.400837 -1.425167 -0.402072 -0.526540 -0.724997 1.007333 -0.411205 1.932896 -0.166191 0.010994
kết_quả -1.417398 -0.348965 -0.283839 -0.244117 -2.609199 0.600857 -0.376044 -0.814190 1.447809 1.475355 -0.420090 -1.712595 0.611133 0.357711 1.668361 0.017055 -0.319886 0.015182 0.430946 -0.242660 0.878135 -2.047635 0.644436 1.450884 -1.986641
đặt 1.222687 0.512548 0.198062 0.919036 -1.514814 0.316284 -1.531074 1.598154 2.067419 0.518815 0.527160 -0.267591 0.882914 -0.514096 1.138032 -0.229441 -0.540052 0.287677 -0.372174 1.331123 -0.935015 0.762828 0.313905 -0.398709 -0.660768
rõ -0.288250 0.717520 0.844798 0.409329 -1.020488 -1.266913 -2.418108 1.639764 1.806898 0.810299 -0.837503 -1.075260 2.171850 0.269574 -0.266322 0.430899 -1.654268 -1.360454 0.651373 2.466168 0.378801 -0.766623 1.137073 0.869513 -0.424926
khó 1.434992 -1.251506 1.313806 0.227239 -1.544407 -0.603675 -0.303563 -0.196066 1.225646 -0.606328 -0.211914 0.265813 1.631394 0.784447 0.303364 1.220398 -1.123125 -0.128952 -1.122335 0.632291 0.100327 -0.659079 0.577875 0.974335 0.177152
nhìn 1.170778 0.076404 1.212885 2.470328 -0.026055 -0.972784 -0.670821 0.309920 1.431522 0.817099 -1.673570 -0.792261 1.945419 -0.165149 0.339417 -0.763305 -0.502348 -0.261394 -0.178105 0.496245 0.234699 0.687271 0.929851 -1.403876 0.886885
tài_chính -1.571466 0.043424 -0.335979 -0.857451 -1.252309 1.523496 0.279369 -1.271200 0.844998 -0.213362 1.813048 -0.412732 1.661350 0.092693 -0.581135 0.424290 -0.014416 0.001970 1.202902 1.266427 -0.919851 -1.294281 -0.115776 -0.837023 -1.349713
vùng 0.741570 -1.134684 -0.357007 1.319660 1.078210 -1.164338 0.303355 0.725720 0.193028 0.619079 1.951425 -0.100151 2.140725 -0.922342 -1.005777 0.493007 -0.288218 -1.370008 0.805803 -0.833730 -0.726887 1.447543 -1.417241 -1.269094 0.164744
hcm 0.416541 -0.284027 0.889918 -0.900869 -1.094633 0.798303 0.093231 -0.417853 1.237758 1.954950 -0.035537 0.493806 0.931114 -0.826455 -0.750009 -1.175941 -0.961424 2.171532 0.946072 -0.191271 -0.123422 -0.564926 -0.462254 0.900512 -0.266003
thường 0.812144 -0.113193 1.471946 1.363026 -0.270831 -0.105045 -0.263044 -0.253317 1.210861 -0.491767 0.087220 -0.541743 0.566653 -0.391520 -0.680357 0.337579 -0.853424 0.843416 -0.520403 0.529445 0.951525 -0.063805 0.297390 1.017624 0.697633
ít 0.862779 0.215494 0.610476 0.925113 -1.208981 -0.169502 -0.103759 -0.640529 1.147545 -0.779587 0.714072 -1.263848 0.525030 0.348934 -1.360162 0.374842 -1.737475 0.057840 -1.444141 -0.756970 1.648242 -0.060678 0.758921 0.509476 0.690045
bệnh 0.933125 -1.309372 1.188982 1.103568 0.600881 0.196282 0.393071 1.009698 -0.544153 -0.251292 -0.229380 -0.518783 0.792457 -2.015352 -0.054870 1.121327 -1.419012 -0.376883 -0.640553 -0.124571 1.685253 -0.378599 -0.578364 0.859041 -2.814338
vợ 1.168655 -1.032624 -0.070631 2.075320 0.080700 -1.063867 0.054862 -1.186840 1.194802 -0.204241 -0.454895 -1.876731 -1.572757 -0.246784 -0.261149 -0.716656 -0.327897 0.158751 1.015481 1.773740 0.362943 1.212776 1.383160 1.238207 0.653425
bỏ 2.791696 -0.520784 -0.305950 1.575879 -1.344139 -0.672154 0.573632 1.264788 1.402406 -1.558210 0.004203 0.544511 -0.933228 -0.531248 1.488359 -0.570309 -0.703569 0.432737 0.250479 0.290517 0.390376 -0.695081 0.498243 1.154194 0.928214
xã_hội -0.949109 -0.603280 0.585581 -0.390873 -0.373601 1.278118 0.380519 -1.603080 -0.209840 0.928823 1.743187 -0.712207 2.998307 -1.010870 -0.691243 0.187510 -0.093843 -0.576788 0.388554 1.440215 0.722782 0.984787 -0.956317 -1.273116 -0.357778
quan_trọng -0.589729 -0.667824 -0.757339 0.407508 -0.963649 -0.920522 -1.555875 0.149460 0.985707 0.209563 0.788847 -2.374014 2.544578 0.632447 0.101360 0.707411 0.758697 -1.952289 -0.975093 -0.573229 0.920071 -0.899624 -0.457342 0.984851 0.518208
công_tác -0.871680 -1.312529 -1.185276 0.390476 -1.599804 0.298095 1.480484 -1.043419 -0.009723 0.165902 1.730855 -1.123542 0.900915 -1.597890 1.271191 -0.908212 -0.167216 -0.428061 2.111818 0.611318 1.386257 -1.423704 -0.643451 0.305933 -0.426001
liên_quan -0.283435 0.557770 -0.455037 0.550609 -1.067485 0.623973 0.107598 0.755131 1.718073 -0.471050 0.389583 -1.995050 1.755075 -0.605703 -1.411264 -0.651379 -1.649296 -0.201083 -0.607012 1.002671 1.228649 -0.520844 -0.474837 -0.193912 -1.251397
máy_bay -0.031704 0.539295 -0.232589 0.603033 0.530675 0.438442 -1.367108 -0.194702 2.226383 0.834051 1.008874 0.862247 -0.094960 -1.881144 1.256536 0.717044 0.357547 -0.542581 0.648637 0.388521 1.348165 2.715868 -1.234815 1.843320 -1.231996
trở_thành -0.115107 -0.130652 -0.157672 1.057497 -0.271903 -0.615435 -1.678600 0.347920 0.824662 0.436027 0.727184 -1.698526 0.814214 -0.315539 0.104297 0.021550 1.361948 -0.039286 -0.218621 0.777070 -0.594738 0.089589 -0.035129 1.384169 1.187625
kế_hoạch -0.966435 -0.178087 -1.590776 0.236199 -1.694244 0.681635 -0.809872 0.073716 1.693465 0.437887 1.392430 -0.504527 0.950039 0.172328 0.873377 -0.167672 -0.109216 -0.667679 2.018683 0.269936 -0.050572 -1.723097 1.436362 -0.717332 -0.609255
thời_điểm -0.501817 -0.522841 -0.646357 1.843589 -1.233329 0.098518 0.540437 -0.511466 1.958704 0.688019 0.713459 -1.395690 1.477275 0.691301 -0.172844 0.244857 -0.500033 1.005366 -0.149452 -1.376295 0.453080 -0.082958 0.172418 0.786107 -0.557288
hlv -1.596929 2.035814 0.133248 1.351940 0.929209 -0.047694 0.500436 -0.932071 1.021432 -1.317137 -0.125141 -1.284862 -1.059080 0.749838 -0.652359 -0.913283 1.727127 1.283596 0.772445 1.422901 -1.374250 0.935252 0.115814 3.063758 0.041488
phó -1.593324 -0.333747 -2.252337 0.060812 0.799753 -0.068133 0.323442 1.371253 0.359296 0.690008 1.176543 -1.628341 -1.506807 0.231272 -2.393814 -0.009609 0.441965 0.946634 3.306545 2.548675 -0.604520 0.254477 1.680131 2.002041 -1.268363
phát_hiện 0.777166 -0.098898 0.301059 0.917803 -0.153012 -0.070504 -0.815861 0.846614 1.129238 0.650040 -0.030162 -0.485448 0.934545 -1.741722 -0.183509 -0.756634 -1.344305 0.438950 -0.082888 0.799089 0.955920 0.666370 -0.186001 1.591067 -0.678054
lực_lượng -0.884275 0.883379 -0.744136 -0.912817 0.051265 -0.575058 0.805980 -0.396273 0.570410 -0.784234 1.642615 0.842222 1.387944 -2.000995 -0.575593 -1.143712 -0.289342 -1.278021 1.585609 0.761584 1.051083 0.865694 -1.426815 1.334858 0.029302
quận 0.227437 -1.410586 -0.153886 -1.021353 -0.085614 -0.426282 1.674123 1.178311 -0.053245 2.448162 0.745850 0.177430 1.104720 -0.500649 -2.619585 -0.255578 -1.199217 2.089501 1.500699 -0.811382 0.136991 0.523604 -2.067931 0.977576 -0.756689
trung_tâm 0.374218 -0.206258 -1.246451 -1.012534 -1.307635 0.773701 0.572149 1.018452 0.602958 1.586256 1.238886 -1.666533 1.253940 -0.589831 -0.310628 -0.293839 0.935641 -0.088605 1.103078 1.077930 0.478275 -0.000868 -2.285747 -0.346852 -0.647759
khách 1.067461 0.647534 0.064218 0.780784 -1.335268 0.491136 0.813297 -1.691277 1.281533 -0.431947 0.890754 -1.279447 -2.461240 -1.297717 -0.197311 -0.115571 -0.931753 0.418568 0.303240 0.731404 1.248173 -0.099674 -0.857445 -0.633585 0.542221
làm_việc -0.301862 -0.281346 -0.674930 1.103811 -1.740202 -0.169879 1.835488 -1.237145 0.729783 0.793830 0.314126 -1.571737 0.358838 0.155814 0.141820 -0.341629 -0.396390 0.885001 0.881452 0.077205 1.477797 -0.984693 -0.983314 0.081943 0.627302
đáng 0.953151 -1.746000 1.480902 -0.914288 -1.286413 -0.610610 -1.603503 -1.508433 0.821986 0.417354 -1.460452 -1.508973 0.631518 0.642826 -0.327962 0.708129 -0.808637 -1.091029 -1.650696 0.648394 0.856299 -0.148134 1.107977 1.118669 -0.167140
thấp 0.464740 -0.399497 1.825688 0.998366 -0.648722 -0.840093 -0.282468 -0.798540 1.605011 0.533654 1.152237 0.340621 0.954619 0.211768 -0.467238 2.230955 -1.895978 -1.034903 0.076441 -0.789571 -1.313240 0.058141 -0.214826 -0.742983 -0.867101
khẳng_định -0.456244 -0.082071 0.814715 -0.360544 -0.671728 -0.354822 -1.108451 -0.172400 1.258288 0.516217 0.318704 -0.976146 1.615918 0.250011 -0.599567 -1.152610 0.355357 0.280697 0.934762 1.564250 -1.478207 -0.072205 0.404614 1.409935 0.504965
dành 1.115677 0.363988 1.165365 -0.123599 -2.043467 0.084975 -0.153012 -0.601876 0.980141 -0.144915 1.166050 -1.599622 0.137095 0.740645 -0.327217 -0.224000 0.837554 -0.237804 -0.086846 -0.732242 0.039735 -0.005431 0.959334 -0.123964 0.918113
đêm -0.126561 -1.236187 -1.093378 1.159032 -0.595092 -0.087532 0.488811 -0.162677 1.059039 1.410117 -0.573763 -0.618892 0.184946 0.815525 -0.644490 -0.418789 0.863418 2.262507 -0.043046 -1.992487 1.494801 -0.232235 0.936283 0.053336 1.420671
lượng 0.515330 0.777308 0.976468 0.021513 -1.208295 0.501230 -0.814259 -0.457578 0.833052 0.173725 2.244236 -0.159581 -0.980039 -0.479452 -0.843923 1.019010 -1.921011 -0.694039 0.201671 0.117303 1.046914 0.102150 0.660236 -1.570188 0.392663
thành_công -0.355935 -0.246598 -0.122257 0.727498 -1.201877 -0.503907 -0.837439 -0.910410 0.953061 0.478575 0.742194 -0.874242 0.917570 0.334179 1.047180 0.395609 0.544833 -0.498834 -0.337757 -1.323577 1.000522 -0.696614 0.004582 1.476647 0.666426
riêng 0.331132 -0.172496 0.795309 0.788169 -1.410399 -0.345764 0.041064 0.303706 0.838022 0.444999 1.090906 -2.544374 0.337167 0.783664 -0.388948 0.338980 0.686679 -0.400866 0.651636 0.313112 0.260048 0.344114 0.482566 0.142260 0.177306
sân 1.528137 -0.379484 -1.445796 1.301840 -1.432785 -1.244475 2.759384 1.730035 0.490071 1.568686 -0.680893 0.040750 0.362396 0.857518 0.494319 -0.025159 1.119519 1.678912 1.494884 0.097527 0.066416 1.433838 -0.967702 -0.014721 0.540137
gửi 1.866766 0.544767 0.436106 -0.509230 -2.063166 1.428378 0.077156 0.208898 2.235452 -0.254031 0.484564 -0.466750 -0.159599 -0.949360 -0.039131 -1.718136 -0.020208 0.297881 1.120716 1.020860 -0.298361 0.018192 1.335233 -1.024448 -0.617609
thủ_tướng -2.114182 1.047754 -1.464990 -0.827700 -0.340815 0.682956 -0.053988 -0.912468 1.436343 0.045510 0.739744 -0.636045 -0.392159 -0.307260 -1.584245 -2.423565 0.262162 1.873760 1.910479 2.128468 -2.332470 -0.253682 0.749149 1.723096 -0.107247
đơn_vị -1.089319 0.466247 -0.727718 -0.512353 -0.873160 -0.055824 -0.022092 0.415893 0.812753 -0.635644 2.989645 -0.986517 -0.361258 -0.868939 -1.167953 -0.353320 0.029187 -0.062092 0.907381 -0.164553 0.830658 -0.115488 -0.643714 1.525134 0.176519
khỏi 1.294437 -0.096262 -0.567861 2.259733 -0.625564 -0.523019 -0.007001 1.285192 0.813423 -0.336168 0.663440 0.436932 1.869918 -1.564659 2.065947 -0.810932 -0.239098 -0.269619 -0.821120 -0.350958 0.222636 0.647940 -0.942063 0.487437 0.737393
nằm 0.290307 -0.350851 0.149036 2.701944 0.066178 -1.368071 0.815090 0.971033 0.991543 1.130643 -0.165996 -0.239991 0.984743 -0.454958 0.102506 0.625460 -1.101193 0.890556 0.355131 -0.186490 1.142973 0.360184 -1.136560 -0.123593 0.755734
nữ 0.042354 0.767324 -0.904839 -0.469573 0.398599 -0.250818 -0.416780 -0.756858 1.365132 -0.179189 0.374048 -2.123581 -1.692529 -0.199291 -1.692433 -0.167023 1.343771 0.300815 -0.024770 0.924408 1.046741 1.201725 -1.318191 1.531486 0.858548
hình_ảnh 0.009515 0.769860 1.044456 1.049978 -0.152206 0.044425 -1.191680 -0.220736 0.838576 1.328128 -0.957345 -1.957074 1.158696 -0.451351 0.563923 -0.006028 1.199950 -0.879655 0.280433 0.755150 1.209353 0.244984 0.171647 -0.278018 0.139595
yêu 0.827755 -1.155841 0.394159 0.357615 -0.387947 -0.350104 -0.312513 -2.020902 1.018064 -0.497685 -0.590856 -1.566556 0.218233 0.684038 -0.998726 0.074661 0.997620 0.022824 -0.098715 1.696783 1.097989 0.201438 1.548896 -0.238864 2.553344
chết 0.975175 -1.822781 -0.897354 2.511927 1.451859 -0.263139 -1.099880 -0.752201 1.367797 -0.974450 0.130608 0.609801 -0.265474 -1.162078 0.152199 0.772217 -0.939782 -0.041379 -0.344286 0.780461 1.368719 1.426926 1.034964 1.214454 -0.210155
như_vậy -0.178364 -0.447928 0.441854 0.864689 -0.527711 -0.288961 -0.547166 -0.688051 1.256141 0.012025 -0.348500 -1.138778 1.270601 0.997939 -0.562879 0.648929 -0.989272 -0.219815 -0.238045 1.003001 0.713910 -0.552270 0.705221 0.910735 -0.166235
sao 1.309618 -0.599263 0.624516 0.751322 -0.768283 -0.084797 -0.760927 0.146083 1.450950 0.323860 -0.355390 -1.449046 0.163452 0.694390 -0.953179 0.409236 0.101210 1.145066 -0.756025 1.468790 0.323329 1.163940 0.698264 0.581678 0.269543
chia_sẻ -0.241883 0.945787 1.327054 -0.118499 -0.503916 -0.164297 -1.093553 -0.585849 0.873401 1.235910 -1.374238 -1.943056 0.897107 0.324892 -0.911326 -1.549893 -0.063676 -0.254112 0.067129 0.239757 -0.003984 0.032750 0.840708 -0.419635 0.378370
đứng -0.276536 1.369004 -0.123271 3.056616 -0.266280 -0.724282 0.459404 0.123187 2.123875 0.129512 -0.063589 0.634025 0.746980 0.182869 0.232276 -0.317468 -1.087616 1.235637 0.061041 -0.428983 -0.711501 1.409525 0.101895 -0.500915 0.384471
bảo_vệ 0.654603 -1.261003 -0.414978 -0.360779 -0.585101 -0.168137 0.471828 -0.007920 -0.053469 -0.453241 1.405653 -0.535543 1.419969 -1.119953 0.834883 -0.476574 0.861825 -1.267005 1.458435 2.351814 0.404004 0.806409 -0.713757 0.475842 0.272051
điều_tra -1.495311 -0.730662 -1.109434 0.375957 -1.194932 0.300127 -0.420114 0.375469 0.833790 1.397152 1.093088 -0.598381 1.461163 -2.246217 0.992570 -0.821631 -1.217445 0.244285 1.946553 1.982035 0.464347 -1.683178 -0.634012 1.362462 -1.100037
cơ_hội 0.528074 -0.690011 0.180685 0.362250 -2.596160 -0.908038 -0.698958 -0.531040 0.399632 0.384146 0.734542 -0.813128 0.710959 0.433271 1.927357 0.110378 -0.425685 -1.031050 -0.430835 -0.728026 0.776203 -0.992768 0.505045 0.950442 1.202815
đôi 0.020745 1.666264 -0.320455 1.803874 1.492974 -1.499652 -0.205774 -0.370778 1.573727 -0.214204 -0.531874 -1.299016 -1.680738 0.812833 -0.764409 0.339322 -0.135773 -1.746035 2.732364 -0.470927 1.509474 -0.309203 1.044006 0.213446 1.038093
bắt_đầu -0.295200 -0.038366 0.209875 1.706455 -0.710772 0.216174 -0.341628 -0.491522 1.597474 0.103473 0.083547 -0.028838 1.257352 -0.544628 0.685937 -0.432589 -0.062006 1.275019 0.021208 -0.233679 0.264275 -1.115724 0.592099 0.563819 0.885027
xuất_hiện -0.762220 0.925503 0.497459 2.063596 0.266554 -0.384334 -0.744419 -0.498250 1.149573 1.090801 -0.782628 -0.735086 1.300331 -0.375291 -0.115646 -0.107405 -0.907302 0.706484 -0.895527 -0.754638 1.011811 -0.002074 -0.139145 0.079402 0.501217
ban -2.214593 -0.196997 -1.199212 0.275557 0.089908 0.000111 0.283114 0.601260 -1.102710 0.520766 1.232510 -1.024922 0.276747 -0.661186 0.086284 -1.322809 -0.176066 -0.034049 2.122774 1.241541 0.263812 -0.326280 0.196428 1.191463 -0.755401
vay 1.241956 0.506815 0.964338 0.299501 -2.185508 0.796705 0.259369 -0.316884 1.456377 -1.331947 2.869852 -0.662694 -0.467416 -0.132747 -0.154302 0.587705 -0.450130 -0.319899 0.064693 -0.106637 -1.711296 -0.842197 0.406444 -1.253756 -0.218266
báo -0.271438 1.236549 0.251722 0.203101 0.138975 2.007924 0.637120 -0.544976 2.069375 0.246129 -1.142204 -0.513924 0.546765 -0.824063 -1.362219 0.136697 0.034264 1.168740 0.814598 2.246465 1.154226 -0.048403 0.150694 -1.584461 -1.719362
thật 0.857618 -0.843169 1.110012 0.876470 -0.798950 -0.789101 -0.531845 -0.562501 0.661101 -0.165100 -0.967701 -1.135576 0.614485 1.199276 0.111603 1.234401 -0.241562 -0.880084 -0.369435 0.549198 1.191019 -0.490708 1.492947 0.180648 0.564847
buổi -0.318093 -0.549119 -2.030565 0.980765 -1.686687 1.314921 1.266269 -0.533223 0.002645 2.441071 -0.716838 -1.840535 0.310792 0.443008 0.768411 -1.929225 0.711587 1.851785 1.211918 -1.247962 3.000347 -1.073291 1.237933 -0.878522 0.476330
tiếng 1.261916 -0.695160 -0.395009 -0.723454 -0.532664 0.895510 -0.074881 -0.279583 2.355954 -0.715629 -1.135137 0.392124 0.553651 0.297712 -1.535945 0.249388 1.300071 1.034374 -0.525545 0.829866 0.561977 0.865245 1.860111 -1.600342 0.502719
mặt 0.524689 -0.345680 0.036453 1.798308 0.267881 -0.807509 0.996287 0.193810 0.795971 0.855078 -0.871449 -0.426616 1.660952 -0.246906 0.010548 0.266923 -0.423636 -1.320715 1.742884 0.646328 0.379149 0.843434 0.669099 -1.982196 -0.639137
cạnh 0.162479 0.722385 -0.254964 2.451814 0.062716 -0.864003 0.556856 1.177880 0.968165 0.433001 -0.190412 -1.233474 1.567152 0.566366 0.021739 -0.733813 -0.163948 -0.228522 0.894850 0.021082 0.516340 1.298711 0.016311 -0.408761 0.435170
trường_hợp 0.066869 0.422526 0.230168 1.068779 -0.235197 0.007629 -0.576665 0.066998 1.015257 -0.434058 1.188622 -1.778997 0.176955 -0.588895 -1.166649 0.271219 -1.898213 -0.631864 -0.824700 -0.464990 1.098675 0.414711 -0.428037 1.999369 -1.677710
màu -1.167595 0.061065 0.620117 1.210686 1.618320 -0.646987 -1.375265 1.246807 0.649285 0.297508 0.200525 0.123041 -0.148147 0.625937 -0.596072 2.039477 1.792203 0.117785 2.421239 -0.819114 1.471403 -1.657629 2.182761 -0.250319 1.629736
chúng_ta 0.130996 -0.438256 1.930601 1.278123 -0.481220 -0.231994 0.294303 -1.176026 1.133771 -0.715794 0.625818 -0.660122 2.375679 0.344503 -0.708433 -0.866620 -0.482983 0.814404 -0.011199 0.583237 0.106935 0.313199 0.549771 1.672392 1.120773
đông 0.388576 -0.589868 -1.546730 1.050655 -0.495193 -0.718099 0.539701 -0.519598 1.416474 -0.485520 0.270008 -0.986984 -0.097133 -0.896315 -2.356051 0.469985 -2.084097 0.677765 -1.476391 0.822766 -0.148262 -0.443114 -1.309861 -2.005079 0.969283
đối_tượng 0.178757 0.515287 -0.247441 0.531697 0.070506 0.208296 -1.503749 0.746393 1.350363 -0.631548 1.415061 -1.098822 -0.626930 -2.059610 -0.128227 -0.609248 -0.910903 -0.430435 -0.334602 0.606775 0.288512 0.104887 -0.641036 1.471503 -0.735686
dẫn 0.397808 -0.127033 -0.726799 0.371408 0.137869 0.327260 -0.854428 0.650114 2.051460 0.648611 -0.791521 0.554993 1.641273 -0.468511 -1.126239 -0.473062 -1.778051 -0.077556 0.350518 1.083781 0.613771 0.901479 1.115333 -0.333746 -1.127233
thay_đổi -1.200683 1.074504 0.816697 1.491179 -0.007273 -0.674772 -0.565852 0.133428 0.539720 0.046103 -0.168880 -1.415562 1.540413 0.496953 -0.451598 0.056941 -1.376605 -1.053128 0.810738 0.073275 0.819927 -2.033842 0.374117 0.403937 0.348095
bước 0.154806 0.316582 -0.004276 2.353679 0.050750 -1.091880 -0.269760 0.108584 2.603655 0.311502 -0.590429 0.374870 1.256641 -0.301072 1.210856 -0.611206 0.826858 0.110673 1.402611 -1.758058 -0.045617 -1.543909 0.670566 0.327429 1.562905
tự 1.393969 -0.644201 1.821266 0.816344 -0.489545 0.384246 -0.546461 0.641381 0.906337 -1.584441 0.342705 -0.361374 0.887924 -0.862735 1.492196 -0.744886 1.211741 -0.224436 1.181877 1.658717 -0.462742 -0.835322 1.313501 1.263900 0.279679
đồng_thời -0.002730 -0.220873 0.945144 -0.365784 -0.822923 0.117222 -0.844583 -0.486584 1.065286 0.146973 1.009443 -0.009278 1.680566 -0.959911 -0.222392 -1.543102 -0.724376 -0.126126 1.336218 0.605208 -0.242462 -0.809745 0.603824 1.229134 0.311813
chung -0.518930 -0.803849 -0.264134 1.520655 -0.960697 -1.168438 0.173931 -0.187424 1.001279 0.615011 0.783771 -1.583812 0.580047 0.261767 0.611563 -0.040918 0.304648 -1.026056 1.693277 0.446944 -0.281183 0.293396 0.698020 -1.132727 0.602776
hỏi 1.605185 0.456003 1.295146 0.643351 -1.432075 1.020396 -0.484784 0.629230 1.342568 0.017742 -0.964391 -1.883375 0.199389 0.234610 0.075556 -1.646556 -0.540178 0.653945 -0.461250 1.783318 0.237032 0.677210 1.531546 0.306225 -0.964592
độ 0.633105 -2.208896 1.017794 -0.614227 -0.300764 -1.458869 -0.404046 -0.734641 0.556864 1.760006 -0.141158 0.143122 -0.074861 -0.643493 -1.101431 1.795396 -0.500076 -0.796851 0.666848 -1.302691 0.284817 -0.289271 0.270666 -0.843607 -0.255842
hãng -1.453532 1.519983 0.557398 0.023368 0.363300 2.033530 -1.099840 -0.028731 2.130435 -0.252498 0.940305 -0.324389 0.326793 0.131066 -0.625074 1.589807 1.589659 0.878071 0.823960 2.205874 0.584900 0.510464 0.048089 0.942945 -1.365828
chạy 1.635912 0.058776 -0.080969 0.631245 -0.518049 -0.063924 0.036080 0.812105 2.914086 -0.083237 -0.897117 1.250930 -0.392318 -0.574266 1.097522 0.497658 0.190653 0.462743 0.811156 0.381553 1.446084 -0.276211 -0.465347 0.166005 0.502627
nghĩ 1.202223 -0.951432 1.327848 1.268744 -0.900770 -0.400680 -0.230841 -0.487703 1.492921 0.247957 -1.212235 -1.481009 1.493625 0.846541 -0.853683 -0.580091 -1.055975 1.052282 -0.635464 1.802377 0.253437 0.684043 1.107065 0.857613 0.350567
khách_hàng 0.904810 1.227449 1.214946 0.517846 -1.271937 0.722265 -0.356165 -1.149634 1.352456 -1.202849 1.816581 -1.727518 -0.169233 -0.909344 0.164270 -0.884682 -0.253297 -0.907311 -0.633315 -0.057853 0.331703 0.644047 -0.434548 0.320697 0.272110
việt 0.717396 0.285981 -0.098200 0.148376 -0.571627 0.465611 -0.552430 -0.348787 1.988033 -0.288473 0.483947 -0.939660 -0.173285 0.341038 -1.642965 0.611122 1.323373 1.641679 -1.208924 1.375863 -0.127091 0.535638 -0.482828 -1.378931 2.316735
xin 1.369714 0.075687 1.285451 0.459377 -1.133127 1.720216 0.590090 0.236771 0.812750 -1.457998 0.039543 -0.736246 0.150500 -0.836937 -0.226652 -2.453557 -1.097322 1.071590 0.505494 0.043568 -0.473376 -1.590492 2.416178 0.140091 -0.962916
đánh_giá -0.910358 0.158240 1.262166 -0.140818 -1.088338 -0.446727 -0.404615 -1.094838 1.183503 0.752294 -0.031638 -1.803943 1.386147 -0.305837 -0.274249 -0.301577 -1.133119 -1.025516 0.995125 0.950827 -0.660540 -1.232837 -0.282095 0.686170 -1.216237
phụ_nữ 0.641516 0.625574 0.947630 0.910564 0.228344 -0.177681 -0.068509 -1.348595 1.178287 -0.014085 0.667266 -1.490814 -0.513612 -0.853899 -1.011205 0.075018 0.356933 0.082152 -0.262058 0.536627 1.527638 1.646596 -1.071151 0.697915 1.269520
gọi 1.457717 -0.404112 0.954198 0.643517 -0.430126 0.906401 -0.464005 0.612622 1.839389 -0.602096 -0.445820 -0.535197 0.603139 -0.438205 -0.349251 -0.710091 0.323463 0.810448 -0.373205 1.363194 0.268426 1.148046 1.228185 0.321658 -0.469052
địa_phương 0.218415 0.385587 -0.154309 0.106163 -0.786507 0.221165 0.511981 0.663500 0.819295 -0.212582 1.536607 -1.198349 2.178836 -1.519905 -1.637424 -1.896146 -0.787734 0.247362 0.055490 0.838383 -0.060140 -0.019100 -1.338975 0.275029 0.332784
phiên -1.415419 -0.324378 -1.732349 2.080155 -1.179036 0.728503 0.638612 -0.536913 0.192709 2.267096 0.962804 -1.028408 -0.458019 0.437955 0.747649 -0.297891 -1.616070 2.233363 0.488502 -2.280670 -0.388198 -0.936251 0.818367 -0.186779 -0.967566
vị_trí -0.342113 0.909987 -1.515336 1.242471 -1.021318 -1.619722 -0.287446 1.108075 1.581945 1.303899 0.995340 -1.032462 0.343975 0.687719 0.741607 0.289536 -0.345052 -0.986116 1.104582 -0.306383 -0.748427 0.979119 -0.929181 1.451252 0.038089
nước_ngoài 0.289414 1.561551 -0.025585 0.868873 -1.497478 1.137388 -0.125407 -0.273085 1.652241 -0.743177 1.782707 -1.563984 -0.073137 -1.279375 -0.351292 -0.296213 -0.526019 0.648284 -1.047053 0.746294 0.057455 -1.144279 -1.641951 -0.940734 0.636720
tình_trạng -0.041292 -0.964513 -0.226596 1.238123 -0.640742 0.163819 0.138220 -0.781119 0.066135 -0.206166 0.979522 0.029657 1.741718 -0.833777 1.034974 0.593738 -1.983347 -1.007965 -1.093571 0.414738 0.801111 0.242933 -0.605869 0.220237 -1.112598
trở_lại -0.466102 -0.317913 0.122157 2.199453 -0.618082 -0.525081 0.478040 -1.496198 1.828325 1.082885 0.022296 0.259951 1.552121 0.241098 1.076908 0.268005 0.006067 1.122589 0.323560 -0.946107 -0.527404 -0.497932 -0.197286 -0.027724 0.835418
chọn 1.080242 0.285423 1.309185 0.594165 -0.893130 -0.433006 -0.640536 1.369912 1.129165 -0.093685 0.292229 -1.219688 0.278278 0.087666 0.376767 -0.581144 1.089093 -0.076693 1.400600 -0.233277 0.821715 -0.708269 0.922609 1.643221 0.893307
ảnh_hưởng -0.104521 -0.000609 -0.314888 1.285553 -0.659044 -0.799215 -1.025706 -1.724017 1.566815 -0.910630 0.408003 -0.708710 1.468010 -1.512601 -0.374145 0.815875 -2.810805 -1.417381 -1.150871 1.325471 1.017728 -1.340945 -0.964968 0.094154 0.331064
dịch_vụ 0.740764 0.787227 1.023134 -0.970761 -1.247369 1.865191 0.215145 0.728797 0.665522 -0.643867 2.156254 -0.965444 0.538108 -0.322700 -0.482533 1.217928 0.850145 -0.747063 0.399267 0.302547 1.127042 -0.461242 -0.837136 -0.888458 -0.899741
viết 0.624203 1.029744 0.761678 0.886497 -0.500637 1.291484 -0.249200 1.274278 1.804963 -0.688059 -1.670385 -1.829192 0.332559 0.149282 -0.424621 -1.349092 1.192504 0.913015 -0.014643 0.841429 0.428385 -0.515752 1.870177 -0.344799 -0.662302
xử_lý 0.158927 -0.441614 -0.916637 -0.836186 -0.684090 -0.351518 -0.303066 1.221401 0.682920 -0.062927 0.533819 -0.037553 1.621021 -0.720359 0.178898 -0.255058 -1.781283 -1.827815 0.891056 0.558689 0.992633 -1.076790 -0.755745 1.482178 -1.601411
hiệu_quả -0.547097 -1.029133 0.897602 0.169512 -1.716708 -0.409346 -0.122233 -0.922432 0.771283 -0.029886 1.390197 -0.774375 2.062238 0.056170 0.553288 1.480375 -0.617735 -1.469668 0.536501 -0.176469 0.762577 -1.964183 -0.087205 0.084842 -0.335109
điện 1.239324 -1.209260 0.419473 -0.251189 -0.774553 1.960621 0.694903 0.557931 0.993347 -1.297205 1.727910 1.197444 0.963063 -0.425534 -0.055881 1.157249 0.146460 0.429060 0.149760 0.523061 0.048682 0.828772 0.650854 -0.910639 -1.826275
giá_trị -1.336294 0.607164 0.348101 -0.174518 -1.865890 0.076145 -0.827505 -0.089066 0.335516 0.779025 2.208876 -2.055619 -0.321947 1.383608 0.026570 2.068083 -0.576954 -1.567324 0.827231 -0.033457 0.450641 -0.779231 0.466247 -0.976666 -0.609010
lãnh_đạo -1.731956 1.414653 0.020634 0.246420 0.072379 -0.378308 0.805641 -0.374296 0.691769 0.308479 1.181934 -1.970575 0.043447 -0.125741 -1.583417 -1.776592 -0.138431 -0.322001 2.261536 0.298854 -0.242351 0.294897 -0.941634 0.710560 0.087334
kiểm_tra -0.596549 -0.325032 0.075853 -0.048190 -1.457359 0.963311 1.108793 -0.202809 0.453105 0.522283 0.551147 -0.063458 1.210754 -1.380276 0.986578 -1.168098 -1.181680 -0.074960 1.793653 0.070546 1.897562 -0.845050 0.079940 0.797218 -1.846096
nền -0.784227 -0.268027 0.413258 1.527896 0.651359 0.591746 -0.127616 0.379876 0.191997 0.180019 1.560479 -0.925623 1.808252 -0.157041 -0.358034 1.615184 2.046098 -0.399013 0.870850 0.550805 -1.172935 0.367066 0.161452 -1.571978 -0.253524
chống -0.965575 -1.242476 -1.124739 0.544597 0.857456 0.628640 -1.002603 -0.250788 -0.350178 -1.024831 1.427553 1.686765 1.156980 -2.105645 0.757189 0.932534 0.248907 -0.253421 0.379211 1.775616 -0.180548 -0.897023 0.665529 0.404466 0.289332
quan_hệ -1.588504 0.784365 -1.111218 1.148776 -0.333325 -0.283299 0.573561 -1.096936 0.382590 -1.940059 1.356922 -1.271226 1.907587 -0.003657 -0.779097 -1.503702 -0.333623 -0.957332 -0.057475 0.706265 -0.186155 -1.145089 0.482134 -2.137929 2.209382
